1790 100
</s> 0.34647 0.040215 0.78325 -0.10994 -0.18963 -0.43127 0.097695 0.023631 0.055891 -0.002111 -0.18561 -0.13255 -0.035238 0.054793 0.11054 -0.37919 -0.087292 0.037477 0.32884 -0.23739 0.31137 0.00083863 -0.082135 -0.057357 0.21613 0.32064 0.25374 -0.013049 0.031035 0.28647 0.15135 0.023658 0.078491 0.50646 -0.50999 0.15825 -0.26381 -0.2234 -0.49206 -0.046133 -0.064395 0.073088 0.22373 -0.061151 0.18307 -0.068005 -0.34466 0.39073 -0.12804 0.19465 -0.41873 -0.04211 0.30959 -0.1435 -0.12306 0.038727 -0.24676 0.18803 -0.36504 -0.04944 -0.3716 -0.39613 -0.019028 -0.26182 0.26666 0.028734 -0.084445 -0.13914 0.024967 -0.26135 -0.13045 -0.14669 0.14722 -0.029708 0.12562 -0.11968 -0.025691 -0.042914 -0.10385 0.42051 0.15633 -0.15981 -0.11283 -0.22341 0.46202 -0.049747 -0.096748 0.045628 -0.098701 -0.1223 0.55632 -0.16409 0.27651 -0.074963 -0.48705 -0.23862 0.048003 0.28004 0.029045 0.29219 
반아는 0.4056 0.043245 0.91628 -0.13376 -0.22284 -0.50214 0.11544 0.028306 0.069034 -0.0079649 -0.21591 -0.15295 -0.047659 0.057627 0.12989 -0.44531 -0.10598 0.045673 0.39437 -0.28164 0.36545 0.0027423 -0.095152 -0.059543 0.25061 0.37623 0.29662 -0.020425 0.040974 0.34163 0.17692 0.026089 0.093567 0.59423 -0.59663 0.18193 -0.3069 -0.25881 -0.56995 -0.054335 -0.078534 0.085557 0.26409 -0.067668 0.21508 -0.084264 -0.39946 0.44854 -0.15182 0.23424 -0.48266 -0.046941 0.36502 -0.1712 -0.14534 0.047419 -0.28861 0.21835 -0.42653 -0.065905 -0.43772 -0.46618 -0.028011 -0.30486 0.30199 0.043833 -0.10282 -0.16277 0.022805 -0.31425 -0.15848 -0.16636 0.17259 -0.036983 0.15275 -0.13016 -0.031332 -0.049221 -0.12512 0.48517 0.18484 -0.18905 -0.12622 -0.25976 0.54702 -0.055209 -0.11521 0.05181 -0.12326 -0.13954 0.64089 -0.19282 0.3178 -0.086467 -0.57032 -0.27191 0.058413 0.31699 0.031575 0.34097 
반아의 0.41487 0.039935 0.93223 -0.13734 -0.22665 -0.51999 0.11436 0.026829 0.072194 -0.0072465 -0.22091 -0.15728 -0.049121 0.058433 0.13774 -0.45084 -0.10765 0.046146 0.40061 -0.2861 0.3724 -0.0046246 -0.09902 -0.063131 0.25632 0.38314 0.30705 -0.017869 0.04406 0.34797 0.18157 0.032038 0.091957 0.60273 -0.60535 0.18763 -0.31073 -0.26599 -0.58452 -0.054012 -0.078219 0.08636 0.27086 -0.074328 0.21816 -0.08174 -0.40999 0.46591 -0.14864 0.23579 -0.49698 -0.055743 0.37169 -0.17256 -0.14589 0.048288 -0.29873 0.22599 -0.43791 -0.066522 -0.43682 -0.47091 -0.023833 -0.31148 0.31247 0.041764 -0.10385 -0.16843 0.025433 -0.31996 -0.15995 -0.17412 0.17638 -0.041378 0.15587 -0.13805 -0.034348 -0.05341 -0.12622 0.49668 0.19397 -0.18844 -0.13291 -0.26661 0.54956 -0.055124 -0.1151 0.052452 -0.12115 -0.14389 0.65822 -0.19574 0.32832 -0.090282 -0.58288 -0.27754 0.05902 0.3267 0.028879 0.34871 
있는 0.46087 0.04741 1.0434 -0.15074 -0.25982 -0.57594 0.12956 0.026773 0.078309 -0.0033614 -0.24293 -0.17548 -0.054235 0.074216 0.14698 -0.5081 -0.11829 0.045811 0.44478 -0.31698 0.41911 0.0024021 -0.11104 -0.076495 0.28466 0.42547 0.33573 -0.017488 0.046607 0.38238 0.20146 0.033252 0.10524 0.67488 -0.672 0.21058 -0.34795 -0.29285 -0.65062 -0.059106 -0.082706 0.096278 0.29887 -0.083181 0.24852 -0.093239 -0.44988 0.51817 -0.17016 0.26623 -0.55643 -0.060936 0.41534 -0.19652 -0.16558 0.047092 -0.32853 0.2562 -0.4858 -0.069211 -0.49646 -0.52354 -0.029681 -0.35262 0.34928 0.045785 -0.10577 -0.17988 0.03029 -0.3543 -0.18018 -0.19555 0.19263 -0.039285 0.16632 -0.15375 -0.036775 -0.053365 -0.13826 0.55102 0.20954 -0.20993 -0.14969 -0.29733 0.61429 -0.064732 -0.12733 0.058364 -0.13611 -0.16239 0.74094 -0.2264 0.37085 -0.09735 -0.64722 -0.31922 0.063732 0.37208 0.032383 0.38454 
그의 0.44351 0.045052 1.0112 -0.14222 -0.24455 -0.55319 0.12754 0.023693 0.081839 0.0014258 -0.23288 -0.17072 -0.046836 0.069317 0.14737 -0.48602 -0.11965 0.050105 0.43247 -0.31381 0.40539 0.00035024 -0.10489 -0.073973 0.27957 0.42077 0.33487 -0.017935 0.052062 0.3803 0.19681 0.027633 0.10279 0.65302 -0.65695 0.20049 -0.33831 -0.28716 -0.62956 -0.055697 -0.085903 0.092615 0.28729 -0.076556 0.23253 -0.095848 -0.44226 0.50301 -0.1636 0.24867 -0.5405 -0.051371 0.40654 -0.19158 -0.15705 0.05677 -0.3211 0.24397 -0.47144 -0.067466 -0.47667 -0.51172 -0.029573 -0.3399 0.33946 0.046633 -0.10773 -0.18048 0.02442 -0.34514 -0.17945 -0.18341 0.18702 -0.036674 0.16071 -0.15 -0.042585 -0.053322 -0.13144 0.53426 0.20306 -0.20197 -0.14793 -0.29205 0.60272 -0.059706 -0.12741 0.057898 -0.13614 -0.15661 0.70946 -0.2147 0.35864 -0.095706 -0.63068 -0.3029 0.065506 0.35677 0.032839 0.36935 
하고 0.51101 0.046997 1.1348 -0.16921 -0.27588 -0.62271 0.1384 0.032366 0.084787 -0.002847 -0.26294 -0.18945 -0.053628 0.081433 0.16008 -0.53652 -0.136 0.052286 0.48897 -0.34628 0.44928 0.00027259 -0.11042 -0.075079 0.31375 0.46798 0.36682 -0.020284 0.044365 0.41554 0.21526 0.037127 0.11829 0.73636 -0.72783 0.2272 -0.38282 -0.32213 -0.71181 -0.062902 -0.092848 0.107 0.32256 -0.08229 0.26928 -0.10712 -0.49432 0.55841 -0.18423 0.29145 -0.60007 -0.057209 0.44834 -0.21496 -0.1748 0.055562 -0.36012 0.2718 -0.52544 -0.07764 -0.53841 -0.57597 -0.028053 -0.38465 0.37691 0.050232 -0.12847 -0.20329 0.024167 -0.38368 -0.19734 -0.20262 0.21138 -0.047546 0.18502 -0.1648 -0.039772 -0.061859 -0.1511 0.60043 0.22635 -0.23126 -0.16718 -0.31909 0.67349 -0.070172 -0.14971 0.063027 -0.14982 -0.17466 0.7982 -0.2377 0.39633 -0.10566 -0.70389 -0.33906 0.071016 0.39676 0.035225 0.41445 
있었다. 0.38066 0.03155 0.84531 -0.13004 -0.20986 -0.4678 0.11113 0.018468 0.06596 -0.014771 -0.19271 -0.14099 -0.040027 0.053676 0.12155 -0.40827 -0.09884 0.037629 0.36598 -0.25499 0.33829 0.0044722 -0.075331 -0.054471 0.2317 0.34927 0.27039 -0.013084 0.040419 0.31854 0.16862 0.029218 0.083062 0.54543 -0.53938 0.15894 -0.28931 -0.24265 -0.52831 -0.048636 -0.071648 0.085298 0.24625 -0.062518 0.19634 -0.082441 -0.37276 0.41415 -0.13784 0.21289 -0.43684 -0.043466 0.33195 -0.16635 -0.13323 0.038119 -0.2617 0.1975 -0.39136 -0.056339 -0.39532 -0.42834 -0.027625 -0.28498 0.27902 0.040109 -0.093896 -0.14102 0.016212 -0.2893 -0.14916 -0.15223 0.16096 -0.038215 0.1382 -0.1186 -0.029631 -0.046973 -0.11629 0.44733 0.16892 -0.17331 -0.11571 -0.24301 0.49914 -0.050982 -0.10938 0.045067 -0.11192 -0.1282 0.5913 -0.18338 0.29623 -0.077489 -0.53323 -0.25482 0.050904 0.29527 0.022991 0.31415 
그 0.47986 0.045976 1.0798 -0.16375 -0.2621 -0.60235 0.12699 0.035054 0.076939 -0.01273 -0.25523 -0.18266 -0.05243 0.079184 0.15998 -0.52359 -0.12579 0.052524 0.46712 -0.33304 0.43721 0.0036693 -0.12123 -0.08043 0.29218 0.44689 0.35097 -0.016183 0.043676 0.39903 0.20266 0.036093 0.11267 0.70132 -0.70968 0.22287 -0.35771 -0.31651 -0.67436 -0.060755 -0.085523 0.10567 0.30485 -0.079599 0.25228 -0.090883 -0.47117 0.54522 -0.17102 0.27345 -0.58068 -0.054302 0.43406 -0.19786 -0.16391 0.051688 -0.35077 0.26071 -0.50207 -0.069304 -0.51134 -0.55281 -0.025195 -0.36985 0.36121 0.038058 -0.10835 -0.19596 0.028783 -0.3664 -0.18962 -0.20079 0.19814 -0.042317 0.18396 -0.15682 -0.044496 -0.058598 -0.15119 0.57756 0.22033 -0.22047 -0.15111 -0.30442 0.64442 -0.05794 -0.13168 0.062606 -0.13735 -0.1681 0.76886 -0.23292 0.37218 -0.10816 -0.67417 -0.33206 0.065012 0.37886 0.041845 0.39917 
그녀의 0.43044 0.038833 0.96514 -0.1348 -0.23734 -0.53258 0.11437 0.029348 0.068577 -0.0042476 -0.22396 -0.16134 -0.046684 0.066976 0.14074 -0.46718 -0.11 0.048216 0.41451 -0.29374 0.37942 -0.00054529 -0.094081 -0.068553 0.26153 0.40151 0.31384 -0.020519 0.042357 0.35724 0.18957 0.024073 0.10151 0.62665 -0.62387 0.19312 -0.32354 -0.27148 -0.60419 -0.052265 -0.078799 0.085057 0.27823 -0.075483 0.22979 -0.091369 -0.42106 0.48458 -0.15848 0.24698 -0.51128 -0.049497 0.38741 -0.18174 -0.152 0.048937 -0.30793 0.22694 -0.45091 -0.067086 -0.4553 -0.4919 -0.024238 -0.32744 0.32736 0.044761 -0.10529 -0.17182 0.028731 -0.3299 -0.16491 -0.17884 0.17929 -0.041556 0.15668 -0.14285 -0.034907 -0.052643 -0.13109 0.51388 0.19138 -0.19723 -0.14117 -0.2775 0.57146 -0.057177 -0.12481 0.057537 -0.12512 -0.14715 0.67764 -0.20649 0.34118 -0.09208 -0.59881 -0.29118 0.059598 0.3435 0.026899 0.35506 
다시 0.49191 0.049678 1.1078 -0.15913 -0.27587 -0.60369 0.13324 0.027944 0.077129 -0.013443 -0.26241 -0.18827 -0.059635 0.06878 0.15682 -0.5382 -0.12655 0.053588 0.47215 -0.33737 0.44331 0.002415 -0.11731 -0.0822 0.29881 0.45014 0.36219 -0.019946 0.053184 0.40764 0.20794 0.033797 0.11152 0.70876 -0.71528 0.22165 -0.37271 -0.31444 -0.68836 -0.065794 -0.09576 0.10588 0.31337 -0.080843 0.26201 -0.097452 -0.4841 0.5492 -0.18081 0.27551 -0.58369 -0.06105 0.43915 -0.21138 -0.16985 0.056167 -0.34805 0.26464 -0.51351 -0.073067 -0.52304 -0.55638 -0.033074 -0.37295 0.37263 0.04414 -0.11882 -0.19238 0.029179 -0.37137 -0.1882 -0.20611 0.20823 -0.043475 0.17686 -0.16066 -0.038472 -0.059883 -0.14553 0.59365 0.2234 -0.22906 -0.15693 -0.31988 0.65047 -0.065655 -0.14215 0.062831 -0.14038 -0.17022 0.77522 -0.23074 0.39279 -0.10559 -0.68543 -0.3345 0.066181 0.39116 0.040602 0.41088 
자신의 0.39907 0.04156 0.89255 -0.12972 -0.21906 -0.4936 0.11074 0.024218 0.067728 -0.0047388 -0.20561 -0.15027 -0.040792 0.060172 0.13129 -0.42822 -0.10134 0.043577 0.38094 -0.27338 0.35412 0.0041101 -0.092212 -0.065302 0.24961 0.36129 0.2903 -0.016218 0.039965 0.33137 0.17576 0.025787 0.0919 0.58159 -0.57579 0.17602 -0.30084 -0.25385 -0.56068 -0.055317 -0.074814 0.087364 0.25558 -0.068792 0.21175 -0.078843 -0.39158 0.44619 -0.14315 0.22388 -0.47043 -0.046571 0.35367 -0.17095 -0.13672 0.047023 -0.2822 0.21701 -0.41779 -0.06194 -0.4228 -0.45554 -0.025347 -0.30037 0.29822 0.044327 -0.091583 -0.15767 0.02424 -0.30261 -0.1558 -0.16333 0.16793 -0.038872 0.14176 -0.12977 -0.035161 -0.048294 -0.12344 0.47249 0.18254 -0.18307 -0.12759 -0.25848 0.53402 -0.057581 -0.11705 0.053748 -0.11816 -0.14201 0.62911 -0.1903 0.31162 -0.079574 -0.55805 -0.27457 0.052606 0.31705 0.027303 0.33002 
그는 0.41716 0.041722 0.93366 -0.13055 -0.2331 -0.52087 0.12201 0.029743 0.067061 -0.0072709 -0.21973 -0.15602 -0.048633 0.061323 0.1429 -0.45163 -0.10192 0.045283 0.39719 -0.28841 0.37536 0.0045801 -0.09338 -0.067489 0.25713 0.3869 0.30632 -0.013046 0.041857 0.35158 0.17807 0.03223 0.096728 0.6065 -0.6058 0.19163 -0.31394 -0.26789 -0.58548 -0.05592 -0.081608 0.083232 0.27166 -0.066817 0.22039 -0.082704 -0.40799 0.46887 -0.16174 0.23331 -0.4973 -0.045306 0.37683 -0.17704 -0.14378 0.046438 -0.29752 0.22414 -0.43605 -0.062327 -0.43424 -0.47493 -0.027728 -0.30989 0.31521 0.037035 -0.099408 -0.16541 0.02819 -0.32062 -0.16395 -0.17014 0.17346 -0.035434 0.15731 -0.1387 -0.028659 -0.050354 -0.12102 0.50058 0.19369 -0.18611 -0.13406 -0.26915 0.55404 -0.055258 -0.10949 0.055611 -0.12085 -0.15076 0.65935 -0.19586 0.3356 -0.085415 -0.57712 -0.2847 0.058375 0.33387 0.028467 0.34836 
시작했다. 0.34566 0.029029 0.77327 -0.11591 -0.19052 -0.42341 0.098549 0.017651 0.061153 -0.005433 -0.17794 -0.12864 -0.037394 0.049564 0.10902 -0.37088 -0.09021 0.038779 0.33239 -0.23247 0.30739 0.0028506 -0.073145 -0.051744 0.21139 0.31645 0.24852 -0.014011 0.039883 0.28924 0.14861 0.022788 0.079835 0.49692 -0.4975 0.15056 -0.26226 -0.22115 -0.48241 -0.046413 -0.066341 0.074569 0.21849 -0.059201 0.17911 -0.071499 -0.33656 0.38045 -0.12659 0.19351 -0.40173 -0.039204 0.30592 -0.14778 -0.12511 0.03517 -0.24174 0.18574 -0.35995 -0.052151 -0.367 -0.38994 -0.024006 -0.26155 0.25933 0.035835 -0.083037 -0.13064 0.017235 -0.26366 -0.1335 -0.13878 0.14441 -0.035084 0.12703 -0.11355 -0.028948 -0.041221 -0.10326 0.41067 0.154 -0.15716 -0.10804 -0.22153 0.45542 -0.045998 -0.098184 0.040049 -0.099852 -0.1168 0.54015 -0.16322 0.27182 -0.0713 -0.4862 -0.22821 0.047255 0.27129 0.021997 0.28314 
말에 0.41759 0.043482 0.93665 -0.1336 -0.22593 -0.511 0.10984 0.027487 0.068277 -0.0063417 -0.21334 -0.15714 -0.049158 0.067797 0.13391 -0.45082 -0.10492 0.052791 0.39308 -0.28961 0.37184 0.0054764 -0.10332 -0.068189 0.26086 0.386 0.30365 -0.019331 0.045859 0.34332 0.18238 0.029168 0.097643 0.60746 -0.59763 0.18469 -0.3149 -0.26437 -0.58183 -0.059136 -0.077783 0.084581 0.26687 -0.06829 0.22265 -0.088367 -0.41012 0.46441 -0.15027 0.23838 -0.48668 -0.042761 0.36485 -0.17594 -0.14538 0.049032 -0.29768 0.22437 -0.43168 -0.065343 -0.44087 -0.47484 -0.030604 -0.30859 0.31393 0.038218 -0.096709 -0.16615 0.024077 -0.31904 -0.16371 -0.16865 0.1778 -0.040202 0.1522 -0.13888 -0.02671 -0.04894 -0.13042 0.4958 0.19421 -0.18746 -0.1385 -0.26469 0.56013 -0.055035 -0.11267 0.05196 -0.12488 -0.1415 0.65802 -0.19662 0.32594 -0.081753 -0.58076 -0.27988 0.056632 0.32889 0.029558 0.34561 
반아가 0.473 0.050264 1.0726 -0.15638 -0.25751 -0.58821 0.13461 0.029174 0.079503 -0.0069569 -0.25048 -0.17624 -0.052737 0.071626 0.15383 -0.51587 -0.12535 0.053174 0.46261 -0.32525 0.42264 0.0049835 -0.1121 -0.071364 0.29353 0.44289 0.35242 -0.018325 0.052717 0.39537 0.2085 0.038485 0.10912 0.69163 -0.69419 0.21801 -0.35554 -0.30018 -0.67024 -0.067071 -0.093295 0.10159 0.30215 -0.084058 0.2482 -0.094803 -0.46294 0.53544 -0.17056 0.27269 -0.56795 -0.054699 0.42492 -0.2007 -0.17085 0.051219 -0.33823 0.25706 -0.49895 -0.069143 -0.50956 -0.54362 -0.026512 -0.35772 0.36097 0.048624 -0.11443 -0.18688 0.027559 -0.36328 -0.1841 -0.20258 0.20045 -0.043418 0.17267 -0.15694 -0.036149 -0.057133 -0.14389 0.5712 0.22018 -0.22 -0.15594 -0.30204 0.63242 -0.06409 -0.1342 0.061943 -0.13751 -0.16417 0.7546 -0.22819 0.37726 -0.098684 -0.67171 -0.32226 0.066043 0.37778 0.035272 0.394 
* 0.082819 0.0090011 0.16271 -0.033265 -0.02942 -0.10253 0.0080151 -0.00069613 -0.0030071 0.013234 -0.04164 -0.035113 -0.015973 0.029076 0.027836 -0.067174 -0.015261 0.025169 0.076084 -0.051859 0.084695 -0.0039482 -0.030091 -0.0023146 0.045778 0.079446 0.050109 0.022105 -0.0031598 0.071771 0.025686 0.0013171 0.03186 0.096428 -0.13923 0.021674 -0.072801 -0.047707 -0.12078 0.020848 -0.0069147 0.014751 0.062333 0.00042548 0.021633 -0.042751 -0.083594 0.11039 -0.034743 0.054369 -0.10128 -0.0073473 0.078534 -0.022413 -0.010766 0.013365 -0.05548 0.043456 -0.08648 -0.0082192 -0.071689 -0.088744 -0.0068195 -0.068313 0.058939 0.0088814 0.0010548 -0.016525 0.0040605 -0.04189 -0.0077573 -0.017499 0.015807 -0.020791 0.03014 -0.045756 -0.019035 -0.025143 -0.020564 0.099932 0.03829 -0.027304 -0.014914 -0.05257 0.10526 -0.017017 -0.01691 0.002863 -0.010643 -0.054899 0.10458 -0.037416 0.067188 -0.022327 -0.10013 -0.04364 0.0058536 0.068065 0.016051 0.069941 
반아를 0.38424 0.042553 0.86238 -0.1248 -0.20987 -0.47783 0.10998 0.025209 0.066101 -0.0039248 -0.19822 -0.14399 -0.044077 0.056254 0.12439 -0.41622 -0.10366 0.042578 0.37363 -0.26479 0.34384 0.0037326 -0.083893 -0.055705 0.23885 0.35729 0.2863 -0.012286 0.040864 0.32729 0.17136 0.030747 0.087505 0.56254 -0.56022 0.17428 -0.28885 -0.24743 -0.54243 -0.052531 -0.074471 0.084597 0.24922 -0.065348 0.20474 -0.076013 -0.37809 0.4295 -0.13678 0.21853 -0.45027 -0.042684 0.34592 -0.16257 -0.13406 0.040631 -0.27141 0.2078 -0.40394 -0.058425 -0.41348 -0.44208 -0.025451 -0.29473 0.28691 0.038813 -0.09327 -0.14896 0.019746 -0.29572 -0.14943 -0.15862 0.16169 -0.03306 0.14223 -0.1262 -0.029415 -0.050299 -0.11915 0.46158 0.17424 -0.17917 -0.12385 -0.25067 0.51365 -0.05035 -0.10895 0.045888 -0.11179 -0.12616 0.61011 -0.18603 0.3059 -0.080004 -0.53865 -0.25937 0.052232 0.30259 0.023531 0.32179 
수 0.53346 0.046063 1.1891 -0.16627 -0.2919 -0.65871 0.14475 0.03336 0.08801 -0.0077631 -0.28232 -0.20039 -0.065659 0.078618 0.16389 -0.56564 -0.12563 0.05655 0.50164 -0.37598 0.47772 0.0070815 -0.12801 -0.087865 0.32274 0.48652 0.39224 -0.029154 0.05046 0.43418 0.222 0.034499 0.12748 0.76215 -0.7629 0.24327 -0.39302 -0.33553 -0.74323 -0.078305 -0.097472 0.1086 0.33271 -0.086872 0.28372 -0.10721 -0.51762 0.59748 -0.19745 0.29799 -0.63716 -0.059105 0.46663 -0.23094 -0.17628 0.051643 -0.38265 0.2903 -0.55696 -0.071828 -0.56904 -0.60478 -0.028655 -0.39707 0.39842 0.046211 -0.12092 -0.20901 0.03198 -0.39727 -0.2082 -0.21798 0.21779 -0.049261 0.19546 -0.1754 -0.037881 -0.058541 -0.1504 0.64 0.23857 -0.23926 -0.17533 -0.34277 0.71157 -0.071508 -0.14647 0.062581 -0.15134 -0.18916 0.84646 -0.25402 0.42892 -0.11286 -0.74268 -0.35909 0.067213 0.42353 0.03699 0.43952 
그러자 0.37213 0.045502 0.83388 -0.12697 -0.20488 -0.46215 0.10737 0.028382 0.058972 -0.0038608 -0.19576 -0.13967 -0.041335 0.056929 0.12355 -0.40133 -0.092563 0.035657 0.35936 -0.26174 0.33884 0.0040099 -0.086772 -0.061918 0.2336 0.34316 0.27544 -0.015607 0.040635 0.30817 0.15798 0.02419 0.08956 0.53818 -0.54419 0.16597 -0.27811 -0.23712 -0.52154 -0.052528 -0.069848 0.079298 0.23996 -0.066757 0.1952 -0.078748 -0.36294 0.41609 -0.13833 0.20814 -0.44084 -0.042899 0.32815 -0.15692 -0.13048 0.037649 -0.26761 0.20457 -0.38796 -0.051009 -0.39081 -0.42324 -0.027096 -0.27784 0.28202 0.033239 -0.089273 -0.1457 0.022927 -0.28227 -0.14746 -0.16022 0.15827 -0.033522 0.1332 -0.12315 -0.024708 -0.048853 -0.11445 0.44533 0.16926 -0.17009 -0.11941 -0.23554 0.49459 -0.050997 -0.10803 0.047956 -0.10831 -0.12878 0.59101 -0.1754 0.29727 -0.079442 -0.5199 -0.24815 0.05123 0.29847 0.033301 0.30806 
그리고 0.45484 0.051191 1.0339 -0.15059 -0.2542 -0.56494 0.12619 0.027267 0.077641 -0.00072221 -0.23895 -0.17791 -0.047364 0.074298 0.14972 -0.49857 -0.12082 0.049587 0.43912 -0.32 0.41757 0.00055233 -0.1077 -0.070125 0.28279 0.42313 0.33359 -0.01708 0.047837 0.38188 0.20121 0.031606 0.10339 0.67212 -0.66585 0.20536 -0.34691 -0.29208 -0.6436 -0.062524 -0.086572 0.095724 0.29154 -0.078059 0.24052 -0.0914 -0.44784 0.51162 -0.16967 0.25425 -0.5435 -0.055304 0.40763 -0.19579 -0.15904 0.050978 -0.32101 0.24762 -0.48247 -0.071595 -0.48539 -0.52324 -0.032675 -0.34917 0.34804 0.044396 -0.10513 -0.18062 0.034841 -0.34999 -0.17717 -0.19286 0.19067 -0.042133 0.16994 -0.15321 -0.03693 -0.051901 -0.13995 0.55232 0.21121 -0.20984 -0.14968 -0.29309 0.60871 -0.05714 -0.13263 0.05839 -0.13471 -0.15742 0.72251 -0.22261 0.36563 -0.10054 -0.6418 -0.3088 0.058762 0.3693 0.033579 0.3866 
향해 0.37503 0.032648 0.84641 -0.1233 -0.21191 -0.46915 0.10846 0.024822 0.066383 -0.0036826 -0.19794 -0.13899 -0.045329 0.056861 0.12356 -0.40436 -0.095377 0.045202 0.36793 -0.26475 0.33898 0.00071535 -0.087304 -0.055267 0.23304 0.34352 0.27756 -0.014307 0.038098 0.30599 0.16378 0.017394 0.083554 0.55102 -0.54937 0.17084 -0.28341 -0.24507 -0.53123 -0.041612 -0.080727 0.075743 0.23981 -0.063274 0.19333 -0.073788 -0.36699 0.41777 -0.13825 0.21319 -0.44598 -0.046795 0.32796 -0.15885 -0.13822 0.036304 -0.26844 0.20067 -0.39538 -0.058025 -0.40316 -0.42652 -0.02287 -0.28042 0.28401 0.035481 -0.088061 -0.15192 0.022565 -0.29424 -0.14964 -0.15583 0.15965 -0.026973 0.14272 -0.12755 -0.0297 -0.04243 -0.11571 0.44522 0.17316 -0.16805 -0.12446 -0.24922 0.50709 -0.050683 -0.11005 0.05244 -0.11038 -0.13285 0.5976 -0.1742 0.29803 -0.080688 -0.52835 -0.25709 0.049468 0.3002 0.027635 0.31421 
말했다. 0.33039 0.028999 0.73574 -0.11518 -0.18184 -0.4049 0.0932 0.019007 0.05733 -0.006875 -0.16989 -0.12389 -0.035564 0.047557 0.10615 -0.3521 -0.084937 0.032358 0.3238 -0.22106 0.2951 0.0026551 -0.068308 -0.047981 0.20252 0.30376 0.23448 -0.01109 0.034134 0.27868 0.14534 0.025017 0.070746 0.47444 -0.47601 0.14313 -0.25384 -0.21347 -0.46239 -0.043161 -0.0603 0.0722 0.21073 -0.050943 0.1687 -0.072354 -0.32494 0.35857 -0.12293 0.18438 -0.38233 -0.034683 0.29167 -0.14269 -0.11891 0.03339 -0.22875 0.17035 -0.34175 -0.04984 -0.35263 -0.37488 -0.021993 -0.25106 0.24295 0.034732 -0.08011 -0.12701 0.01601 -0.2551 -0.13035 -0.13181 0.13896 -0.031952 0.12175 -0.10755 -0.031304 -0.040635 -0.099898 0.38891 0.14674 -0.14994 -0.10155 -0.21131 0.43441 -0.042067 -0.097392 0.03985 -0.098094 -0.11408 0.51432 -0.15903 0.25393 -0.065207 -0.45968 -0.21879 0.047353 0.25694 0.018529 0.27157 
륜은 0.37625 0.04244 0.85214 -0.11952 -0.21351 -0.46796 0.10567 0.025408 0.067386 -0.0031558 -0.19615 -0.1469 -0.040062 0.057125 0.11905 -0.40827 -0.098818 0.044019 0.36429 -0.25528 0.33479 0.0025131 -0.088418 -0.062472 0.23594 0.34708 0.27446 -0.015296 0.032258 0.31155 0.16634 0.029563 0.095964 0.55657 -0.5498 0.17418 -0.28294 -0.24323 -0.53307 -0.05013 -0.075066 0.082532 0.23969 -0.061805 0.20361 -0.079059 -0.36829 0.41917 -0.13692 0.20773 -0.44246 -0.044252 0.33801 -0.16096 -0.12785 0.03716 -0.26918 0.2077 -0.39356 -0.055667 -0.40285 -0.42747 -0.025921 -0.27951 0.28829 0.029392 -0.087692 -0.14788 0.024199 -0.29022 -0.14807 -0.16158 0.15207 -0.032692 0.13717 -0.12785 -0.029781 -0.044128 -0.11234 0.45137 0.17432 -0.17452 -0.12235 -0.2481 0.50552 -0.054846 -0.10695 0.040352 -0.1067 -0.13227 0.60142 -0.18352 0.29688 -0.080584 -0.52659 -0.25055 0.051195 0.30129 0.032764 0.31293 
했다. 0.43118 0.034767 0.96586 -0.15264 -0.24166 -0.53523 0.12386 0.019475 0.080367 -0.016322 -0.22401 -0.16456 -0.04697 0.063814 0.13817 -0.46478 -0.11562 0.042703 0.42287 -0.29162 0.38313 0.002476 -0.093633 -0.061443 0.26525 0.3994 0.30615 -0.0152 0.04774 0.36656 0.18774 0.031054 0.097253 0.62663 -0.61922 0.18517 -0.33195 -0.28055 -0.60881 -0.058042 -0.085412 0.091864 0.27942 -0.067124 0.22401 -0.092248 -0.4251 0.47667 -0.15618 0.24133 -0.50224 -0.046347 0.38211 -0.18764 -0.15704 0.044272 -0.30159 0.22747 -0.45412 -0.066565 -0.463 -0.4916 -0.027481 -0.33172 0.32475 0.044745 -0.10798 -0.16425 0.018059 -0.33516 -0.17247 -0.17515 0.1831 -0.044163 0.15995 -0.14343 -0.037574 -0.055065 -0.13379 0.51402 0.19188 -0.19793 -0.13625 -0.27829 0.5741 -0.056044 -0.12866 0.050708 -0.13164 -0.14815 0.67702 -0.20498 0.34215 -0.088049 -0.61355 -0.2872 0.062876 0.33863 0.026653 0.3624 
있던 0.39927 0.04156 0.89095 -0.12705 -0.2149 -0.48941 0.10604 0.021389 0.062633 0.0022409 -0.21217 -0.14844 -0.046039 0.065569 0.12931 -0.43296 -0.10416 0.044086 0.38695 -0.27533 0.35853 0.00089385 -0.09492 -0.06556 0.25049 0.37328 0.2944 -0.014819 0.044027 0.3299 0.17086 0.027726 0.089472 0.58642 -0.57703 0.18124 -0.30202 -0.25786 -0.56387 -0.050046 -0.078759 0.080401 0.25841 -0.076183 0.20612 -0.087509 -0.39123 0.44794 -0.14889 0.22413 -0.47139 -0.044936 0.36122 -0.16976 -0.14179 0.042838 -0.28281 0.21498 -0.41542 -0.06234 -0.42405 -0.45275 -0.025038 -0.29625 0.29589 0.035466 -0.092788 -0.15971 0.026422 -0.30568 -0.15814 -0.16759 0.15958 -0.034577 0.14513 -0.1341 -0.028508 -0.04574 -0.12012 0.48108 0.18333 -0.18187 -0.13247 -0.25898 0.53016 -0.048022 -0.10848 0.056516 -0.11542 -0.13677 0.63969 -0.19258 0.31378 -0.085845 -0.55794 -0.27179 0.051423 0.31203 0.026947 0.33694 
륜의 0.4077 0.042089 0.91503 -0.13488 -0.22743 -0.50965 0.11383 0.027034 0.067667 -0.0065232 -0.2127 -0.1517 -0.051364 0.059019 0.13424 -0.43741 -0.10839 0.043583 0.38799 -0.27949 0.36742 0.0065937 -0.096917 -0.06888 0.25096 0.37969 0.29971 -0.020169 0.042237 0.34009 0.18115 0.031321 0.094279 0.59347 -0.59943 0.1814 -0.30786 -0.26271 -0.57387 -0.051895 -0.07873 0.084955 0.25855 -0.065179 0.21153 -0.077822 -0.40269 0.45072 -0.149 0.22479 -0.48401 -0.04844 0.36263 -0.16934 -0.14589 0.050549 -0.29128 0.22467 -0.4278 -0.058599 -0.43069 -0.45884 -0.028157 -0.30843 0.30526 0.040412 -0.095667 -0.16409 0.02291 -0.31575 -0.15913 -0.16935 0.16939 -0.034763 0.14515 -0.13189 -0.035486 -0.046404 -0.12458 0.4879 0.18023 -0.18704 -0.12828 -0.2594 0.53605 -0.055235 -0.11006 0.048103 -0.11815 -0.14002 0.6416 -0.19845 0.31899 -0.086147 -0.56529 -0.27894 0.057342 0.32833 0.0316 0.33789 
마법 0.45257 0.054421 0.99802 -0.12846 -0.23985 -0.5424 0.11822 0.024809 0.06597 -0.00029317 -0.23008 -0.17502 -0.044003 0.079803 0.1449 -0.47858 -0.10845 0.045033 0.40961 -0.2958 0.40645 0.018386 -0.097039 -0.079383 0.27722 0.39033 0.31765 -0.02188 0.031766 0.34035 0.17119 0.020531 0.11124 0.65443 -0.64146 0.20498 -0.32074 -0.27729 -0.62108 -0.054341 -0.083463 0.10372 0.2561 -0.086823 0.21355 -0.077241 -0.42164 0.50756 -0.13843 0.24905 -0.5367 -0.051646 0.39574 -0.18675 -0.15888 0.05036 -0.32624 0.23864 -0.46134 -0.061383 -0.46046 -0.49176 -0.028505 -0.32287 0.35146 0.023278 -0.094763 -0.17591 0.033112 -0.30532 -0.16353 -0.20335 0.18454 -0.042206 0.15525 -0.15159 -0.026585 -0.049494 -0.13604 0.5378 0.19387 -0.18948 -0.14941 -0.28867 0.56803 -0.046781 -0.11095 0.047737 -0.11644 -0.15872 0.71621 -0.20322 0.35621 -0.087918 -0.6084 -0.29926 0.048884 0.36378 0.045093 0.37051 
손을 0.42029 0.037232 0.94049 -0.13836 -0.22838 -0.51814 0.12087 0.023687 0.069396 -0.0039562 -0.21876 -0.15462 -0.046226 0.057878 0.13527 -0.45928 -0.10726 0.045115 0.40051 -0.29286 0.37385 0.0044474 -0.097448 -0.064449 0.26509 0.38739 0.30718 -0.017819 0.037356 0.35089 0.18502 0.030717 0.096124 0.60857 -0.60658 0.19109 -0.3194 -0.26644 -0.58413 -0.050694 -0.080413 0.093378 0.26298 -0.071719 0.21979 -0.088315 -0.41019 0.47037 -0.15048 0.24074 -0.49163 -0.052944 0.37461 -0.17803 -0.15188 0.044954 -0.3049 0.22214 -0.44317 -0.065902 -0.44859 -0.47477 -0.029825 -0.31592 0.31914 0.047859 -0.10195 -0.1655 0.025516 -0.31574 -0.16578 -0.17216 0.17721 -0.043739 0.15697 -0.13297 -0.031465 -0.05346 -0.13331 0.50478 0.19023 -0.18669 -0.13873 -0.26873 0.5603 -0.054342 -0.12133 0.051043 -0.1212 -0.14679 0.65804 -0.19843 0.33022 -0.084238 -0.58848 -0.28234 0.057128 0.33973 0.033952 0.34957 
그리곤 0.3415 0.038802 0.77025 -0.11084 -0.18577 -0.4203 0.094124 0.022758 0.056157 -0.0019044 -0.17956 -0.1273 -0.03469 0.05196 0.11389 -0.36832 -0.087996 0.034984 0.3274 -0.23313 0.30938 0.0018813 -0.079086 -0.05107 0.21317 0.30994 0.24654 -0.012742 0.035476 0.2847 0.14343 0.022237 0.081889 0.49591 -0.49372 0.1498 -0.25504 -0.22082 -0.47816 -0.046937 -0.062944 0.07222 0.21656 -0.058326 0.1794 -0.07235 -0.33054 0.37797 -0.12362 0.18855 -0.39952 -0.039642 0.30723 -0.1416 -0.1176 0.042237 -0.24471 0.18074 -0.3556 -0.054243 -0.3585 -0.38763 -0.02429 -0.25496 0.25757 0.035464 -0.083327 -0.1357 0.024908 -0.25997 -0.13244 -0.14311 0.13904 -0.030408 0.12615 -0.11017 -0.025891 -0.040691 -0.10639 0.40923 0.15366 -0.15657 -0.11388 -0.21703 0.45579 -0.044412 -0.096726 0.047017 -0.10566 -0.11842 0.54092 -0.16314 0.27424 -0.07078 -0.47673 -0.22988 0.04968 0.27048 0.02643 0.28106 
마법을 0.42102 0.051541 0.95007 -0.13151 -0.23417 -0.51519 0.11608 0.027899 0.06831 -0.0038875 -0.22236 -0.16147 -0.047353 0.069827 0.13837 -0.45546 -0.10687 0.041587 0.39949 -0.28867 0.3801 0.012304 -0.096183 -0.066846 0.25975 0.37999 0.30458 -0.016451 0.041403 0.34162 0.17276 0.025426 0.094466 0.60903 -0.60497 0.18971 -0.30879 -0.26927 -0.58423 -0.056923 -0.077549 0.088862 0.26486 -0.079894 0.21692 -0.083199 -0.40855 0.47482 -0.14938 0.23387 -0.50221 -0.051812 0.37284 -0.17857 -0.15037 0.047623 -0.30539 0.22777 -0.43621 -0.059692 -0.44136 -0.47586 -0.019099 -0.31624 0.3242 0.030348 -0.095595 -0.16527 0.028619 -0.31245 -0.16138 -0.17789 0.1681 -0.03531 0.1582 -0.13677 -0.035719 -0.05035 -0.1296 0.50086 0.18664 -0.18756 -0.14203 -0.27633 0.54982 -0.060599 -0.11415 0.048394 -0.11611 -0.1537 0.67248 -0.19758 0.33794 -0.093371 -0.58252 -0.2809 0.051851 0.3321 0.040579 0.34802 
그녀는 0.41981 0.036346 0.94836 -0.13373 -0.23264 -0.51949 0.11884 0.023502 0.064978 -0.0026961 -0.21995 -0.16104 -0.044303 0.062362 0.14074 -0.45781 -0.10666 0.047038 0.40707 -0.28957 0.38202 0.0040008 -0.096894 -0.064038 0.2596 0.39216 0.31078 -0.014486 0.044332 0.34705 0.1805 0.027441 0.10152 0.61727 -0.60879 0.18823 -0.31463 -0.26514 -0.58575 -0.053203 -0.079421 0.088616 0.26532 -0.072682 0.22417 -0.085838 -0.41641 0.4717 -0.14927 0.24005 -0.4989 -0.04849 0.37675 -0.1788 -0.14943 0.046591 -0.3017 0.2292 -0.44006 -0.06225 -0.4453 -0.48047 -0.027175 -0.32141 0.32501 0.042573 -0.099754 -0.17135 0.026236 -0.32559 -0.16027 -0.17519 0.17522 -0.042784 0.15777 -0.13822 -0.033247 -0.048215 -0.12418 0.50753 0.18834 -0.19526 -0.1413 -0.27338 0.56556 -0.057339 -0.11776 0.057696 -0.11988 -0.1432 0.67017 -0.20456 0.33373 -0.089429 -0.58847 -0.28222 0.057268 0.3382 0.027143 0.34859 
없었다. 0.32011 0.026122 0.70567 -0.10768 -0.18107 -0.39204 0.097191 0.016463 0.055838 -0.015165 -0.16333 -0.11919 -0.034208 0.042066 0.10403 -0.34215 -0.082596 0.033727 0.31046 -0.21584 0.28691 0.0074679 -0.061998 -0.048123 0.19645 0.29298 0.22838 -0.011902 0.033119 0.27091 0.14082 0.029258 0.069846 0.45822 -0.45717 0.13742 -0.24972 -0.21284 -0.44491 -0.044243 -0.060497 0.067763 0.2063 -0.053384 0.16404 -0.073081 -0.31747 0.34662 -0.11774 0.18281 -0.36642 -0.033785 0.28196 -0.14228 -0.11148 0.03213 -0.22534 0.1654 -0.32955 -0.04927 -0.33775 -0.36135 -0.017361 -0.23847 0.23529 0.033332 -0.076573 -0.11799 0.0087755 -0.24522 -0.1245 -0.12933 0.13558 -0.030379 0.11451 -0.10329 -0.027924 -0.040677 -0.094045 0.37647 0.14471 -0.148 -0.10186 -0.20643 0.42234 -0.040441 -0.095317 0.04124 -0.097645 -0.10655 0.49844 -0.15497 0.25124 -0.063697 -0.45314 -0.21167 0.042769 0.25051 0.017337 0.26829 
것 0.39521 0.037653 0.88729 -0.1257 -0.20928 -0.4897 0.11092 0.015059 0.056377 -0.010381 -0.20436 -0.14531 -0.044071 0.06337 0.12965 -0.43241 -0.10489 0.051082 0.38724 -0.27449 0.363 0.0068489 -0.090714 -0.072923 0.24695 0.36667 0.2932 -0.014929 0.046871 0.32904 0.17381 0.034112 0.094873 0.57188 -0.57138 0.17586 -0.29588 -0.24823 -0.56014 -0.061588 -0.080428 0.084076 0.24515 -0.068144 0.20179 -0.084911 -0.39433 0.446 -0.14304 0.2224 -0.46832 -0.051477 0.35234 -0.17118 -0.1382 0.043987 -0.29033 0.22368 -0.42058 -0.05366 -0.41373 -0.45055 -0.026187 -0.29869 0.29892 0.041045 -0.099973 -0.1555 0.032753 -0.30356 -0.14216 -0.16521 0.17113 -0.029278 0.1356 -0.13267 -0.025276 -0.048418 -0.12104 0.47986 0.17957 -0.1777 -0.12036 -0.2558 0.51948 -0.048731 -0.10652 0.054015 -0.11076 -0.13169 0.62833 -0.1903 0.31315 -0.094697 -0.54663 -0.27384 0.057829 0.31793 0.034948 0.3325 
말을 0.38383 0.040447 0.87872 -0.12046 -0.21187 -0.48247 0.10982 0.01807 0.064208 0.0022805 -0.206 -0.15011 -0.041675 0.059367 0.13196 -0.4208 -0.1013 0.044844 0.37302 -0.27382 0.35292 0.0036655 -0.091121 -0.063503 0.23845 0.36237 0.28585 -0.019004 0.045339 0.31958 0.17512 0.026843 0.083593 0.56721 -0.56789 0.17906 -0.30018 -0.24695 -0.55132 -0.056829 -0.079148 0.083603 0.25089 -0.065901 0.20392 -0.073546 -0.3826 0.4376 -0.13831 0.22042 -0.46334 -0.047605 0.34438 -0.16209 -0.13409 0.048256 -0.27593 0.21119 -0.40401 -0.051939 -0.41461 -0.43657 -0.02338 -0.29381 0.29462 0.036079 -0.090946 -0.15529 0.023833 -0.29525 -0.14809 -0.16045 0.16304 -0.029433 0.13726 -0.12896 -0.026576 -0.042444 -0.11837 0.46307 0.18321 -0.18148 -0.12431 -0.24835 0.51182 -0.05556 -0.11378 0.050766 -0.10554 -0.13532 0.61489 -0.19217 0.30851 -0.082717 -0.54581 -0.26743 0.054643 0.30665 0.029933 0.32541 
플로렌스 0.33754 0.036682 0.76105 -0.10654 -0.18514 -0.41802 0.08861 0.016869 0.054814 0.0013159 -0.17394 -0.1266 -0.036291 0.051984 0.10985 -0.36335 -0.08343 0.031784 0.31652 -0.23606 0.30392 0.003761 -0.076219 -0.055004 0.20518 0.30981 0.2473 -0.011213 0.037447 0.27595 0.13917 0.022398 0.075345 0.4927 -0.49281 0.14967 -0.24969 -0.21155 -0.47699 -0.042443 -0.067541 0.0686 0.20707 -0.060944 0.17258 -0.063908 -0.32004 0.38288 -0.11784 0.18773 -0.40244 -0.038494 0.29442 -0.13953 -0.11684 0.030699 -0.24368 0.1829 -0.34832 -0.040527 -0.35259 -0.37533 -0.021796 -0.24957 0.26089 0.026516 -0.079838 -0.13293 0.032992 -0.24711 -0.12746 -0.15086 0.14108 -0.029494 0.12574 -0.11457 -0.025742 -0.03563 -0.10224 0.40527 0.15101 -0.15006 -0.11178 -0.21851 0.4405 -0.049924 -0.089597 0.040986 -0.094575 -0.11753 0.53413 -0.16043 0.26812 -0.071952 -0.46235 -0.22607 0.039765 0.27303 0.026716 0.28016 
그런 0.3472 0.038178 0.79107 -0.11253 -0.19733 -0.42694 0.094281 0.01997 0.055256 -0.0054088 -0.18371 -0.13468 -0.037495 0.057025 0.1132 -0.37607 -0.088921 0.039676 0.33115 -0.23788 0.31782 0.0032604 -0.08154 -0.054821 0.22331 0.32455 0.25325 -0.015868 0.035949 0.29259 0.15139 0.024608 0.083635 0.51525 -0.51169 0.15969 -0.26202 -0.22797 -0.49294 -0.049523 -0.069264 0.080611 0.22256 -0.065133 0.19277 -0.073936 -0.34522 0.38812 -0.12184 0.20477 -0.41536 -0.041894 0.31111 -0.14849 -0.12944 0.040828 -0.24783 0.19316 -0.37352 -0.051238 -0.37396 -0.39842 -0.019461 -0.26699 0.2625 0.032144 -0.080254 -0.13823 0.023489 -0.26743 -0.13867 -0.14673 0.15231 -0.035781 0.13286 -0.11348 -0.025527 -0.043963 -0.1017 0.41979 0.16371 -0.16043 -0.11877 -0.22288 0.46685 -0.042031 -0.093258 0.044711 -0.10128 -0.12225 0.55417 -0.16608 0.27847 -0.075834 -0.48771 -0.22965 0.047253 0.27948 0.026191 0.29112 
반아에게 0.42286 0.045421 0.95962 -0.13936 -0.23198 -0.5248 0.11891 0.027419 0.071405 -0.0081411 -0.22222 -0.16151 -0.046481 0.063479 0.13932 -0.46147 -0.11132 0.044497 0.40884 -0.29762 0.38037 -0.00093265 -0.095369 -0.06353 0.2676 0.39444 0.31301 -0.01486 0.044927 0.3549 0.18392 0.032964 0.096478 0.62248 -0.62091 0.19192 -0.31723 -0.27763 -0.60037 -0.059412 -0.083043 0.088877 0.27303 -0.073406 0.22527 -0.082822 -0.42123 0.47671 -0.15711 0.24603 -0.50186 -0.048815 0.38158 -0.1795 -0.1517 0.04664 -0.29961 0.22936 -0.44929 -0.066611 -0.45143 -0.48209 -0.02859 -0.32519 0.31968 0.042695 -0.10431 -0.16838 0.023885 -0.3273 -0.16486 -0.17708 0.1788 -0.039818 0.15379 -0.13603 -0.033391 -0.055992 -0.13062 0.51328 0.19685 -0.19612 -0.13839 -0.27442 0.56537 -0.058227 -0.12018 0.054121 -0.12871 -0.14558 0.67356 -0.2078 0.33572 -0.088654 -0.5926 -0.28643 0.061529 0.33817 0.032224 0.35199 
고개를 0.3295 0.035683 0.73702 -0.10482 -0.18383 -0.40272 0.092279 0.019454 0.04959 0.00027691 -0.17394 -0.12836 -0.04012 0.049594 0.10407 -0.35795 -0.085764 0.032479 0.31435 -0.2238 0.29725 -0.00072889 -0.077046 -0.053775 0.20493 0.30188 0.24489 -0.013492 0.032472 0.26812 0.14377 0.018791 0.073812 0.47944 -0.47811 0.14513 -0.24613 -0.20606 -0.46088 -0.043318 -0.060256 0.076338 0.21398 -0.055635 0.16787 -0.065297 -0.32615 0.36841 -0.1174 0.18897 -0.38785 -0.043875 0.29041 -0.13898 -0.12111 0.032837 -0.23355 0.17963 -0.34701 -0.047402 -0.34919 -0.36978 -0.023978 -0.25064 0.24782 0.031286 -0.074009 -0.1335 0.019232 -0.24733 -0.12793 -0.14289 0.13928 -0.027972 0.12129 -0.10499 -0.02891 -0.038143 -0.10035 0.39317 0.15013 -0.14994 -0.11037 -0.20967 0.43977 -0.046639 -0.086662 0.039524 -0.095241 -0.10986 0.52112 -0.1573 0.25651 -0.067037 -0.45846 -0.2276 0.045949 0.26351 0.022615 0.27578 
그가 0.4007 0.043468 0.87974 -0.13146 -0.21504 -0.48765 0.1111 0.025472 0.068655 -0.0090207 -0.20463 -0.15353 -0.042783 0.062848 0.12557 -0.42621 -0.10369 0.042749 0.37392 -0.27078 0.35738 0.0057888 -0.093174 -0.066118 0.24342 0.36151 0.28695 -0.01319 0.034858 0.32809 0.16606 0.024314 0.089793 0.5743 -0.57339 0.17577 -0.29607 -0.25353 -0.55234 -0.046346 -0.075197 0.078102 0.24945 -0.065878 0.20456 -0.07838 -0.38834 0.44504 -0.14429 0.22099 -0.47312 -0.050803 0.34916 -0.17215 -0.14008 0.043812 -0.28432 0.21048 -0.41353 -0.058106 -0.41697 -0.44591 -0.027969 -0.30028 0.29741 0.041976 -0.092614 -0.15454 0.028004 -0.29716 -0.14753 -0.16334 0.16532 -0.03069 0.14063 -0.12928 -0.029196 -0.045179 -0.12357 0.46907 0.1816 -0.1819 -0.12705 -0.25361 0.52664 -0.054932 -0.1126 0.044832 -0.11297 -0.13549 0.62292 -0.19207 0.30738 -0.078946 -0.54814 -0.265 0.04889 0.31706 0.03094 0.32101 
륜이 0.37069 0.039497 0.84552 -0.12388 -0.20643 -0.46665 0.10061 0.021895 0.059827 -0.0024711 -0.19658 -0.13898 -0.040406 0.062924 0.12392 -0.41439 -0.099696 0.045096 0.35881 -0.26245 0.34138 0.0048105 -0.088264 -0.058902 0.2287 0.35148 0.27393 -0.010224 0.039349 0.31258 0.16806 0.02556 0.091662 0.55249 -0.55067 0.17162 -0.28339 -0.24087 -0.5337 -0.052221 -0.071589 0.084065 0.23672 -0.062687 0.19559 -0.076189 -0.36836 0.42494 -0.14226 0.21441 -0.44809 -0.04478 0.33576 -0.1595 -0.13034 0.039366 -0.27196 0.19958 -0.39167 -0.054268 -0.40204 -0.4291 -0.021981 -0.28425 0.28962 0.036548 -0.088241 -0.14607 0.025493 -0.28802 -0.14811 -0.15552 0.15948 -0.03153 0.14028 -0.12933 -0.035398 -0.044346 -0.1168 0.45327 0.17501 -0.16858 -0.12321 -0.24606 0.5044 -0.055055 -0.097903 0.050991 -0.1108 -0.1317 0.59318 -0.17774 0.29417 -0.076532 -0.52611 -0.25826 0.050386 0.30079 0.031938 0.31406 
보고 0.42477 0.040677 0.95697 -0.1328 -0.2295 -0.51922 0.12444 0.028428 0.075209 -0.0014562 -0.22502 -0.1541 -0.051736 0.072269 0.14162 -0.45991 -0.11105 0.051746 0.40978 -0.29333 0.37713 0.0059223 -0.099713 -0.070471 0.26056 0.39669 0.30657 -0.014079 0.043458 0.35457 0.18376 0.028989 0.096114 0.62457 -0.60976 0.19125 -0.31603 -0.27056 -0.59499 -0.051777 -0.088123 0.089245 0.27791 -0.075786 0.22064 -0.084752 -0.41417 0.4749 -0.15882 0.23875 -0.50147 -0.049514 0.37932 -0.1779 -0.15422 0.042303 -0.30456 0.23171 -0.44349 -0.062652 -0.45392 -0.48306 -0.028378 -0.32153 0.32404 0.040114 -0.10268 -0.16972 0.030446 -0.32532 -0.16901 -0.17419 0.18029 -0.037215 0.15825 -0.1483 -0.028352 -0.045234 -0.1287 0.50538 0.18764 -0.18996 -0.13816 -0.27192 0.56323 -0.054124 -0.11415 0.0466 -0.11907 -0.14665 0.67143 -0.20345 0.33239 -0.094806 -0.59359 -0.28562 0.053569 0.33565 0.031575 0.35576 
그를 0.3519 0.033462 0.79993 -0.11772 -0.19279 -0.44718 0.10417 0.029581 0.057601 -0.0088296 -0.19032 -0.13549 -0.037185 0.05267 0.12219 -0.388 -0.097737 0.040267 0.34624 -0.24341 0.32535 0.0038913 -0.08122 -0.05051 0.22427 0.32725 0.26459 -0.010545 0.039651 0.28907 0.1583 0.022431 0.087434 0.52463 -0.5158 0.16255 -0.26829 -0.23258 -0.50528 -0.041414 -0.069121 0.073747 0.2229 -0.06233 0.18778 -0.065966 -0.34624 0.39917 -0.127 0.20365 -0.42775 -0.035679 0.32038 -0.15218 -0.12445 0.035318 -0.25564 0.19438 -0.37455 -0.051163 -0.37905 -0.41136 -0.019047 -0.27163 0.26742 0.038838 -0.085382 -0.13994 0.017493 -0.2788 -0.1402 -0.15224 0.14383 -0.028579 0.1283 -0.12099 -0.032241 -0.043962 -0.11272 0.42778 0.16034 -0.1655 -0.11913 -0.22728 0.47322 -0.047589 -0.10626 0.045649 -0.10574 -0.12194 0.56824 -0.17532 0.28858 -0.072701 -0.4983 -0.24204 0.048531 0.28086 0.025542 0.29239 
입을 0.33994 0.037117 0.77767 -0.11136 -0.18822 -0.42293 0.095837 0.018785 0.05815 -0.0058303 -0.17697 -0.12447 -0.036125 0.046317 0.11173 -0.37371 -0.090609 0.03576 0.33598 -0.23748 0.30799 0.0025173 -0.076159 -0.056946 0.21138 0.31514 0.253 -0.011376 0.032283 0.28806 0.15102 0.029603 0.076946 0.49905 -0.49942 0.14853 -0.25992 -0.22491 -0.48067 -0.050799 -0.063978 0.069275 0.21948 -0.064398 0.17793 -0.070045 -0.33308 0.3827 -0.13157 0.19611 -0.4161 -0.045759 0.30743 -0.13948 -0.12322 0.040771 -0.25214 0.18631 -0.35528 -0.055829 -0.36517 -0.3992 -0.023401 -0.26479 0.26007 0.035856 -0.083146 -0.13704 0.027352 -0.2624 -0.13264 -0.14175 0.14043 -0.032697 0.12195 -0.1172 -0.034312 -0.044796 -0.10349 0.40956 0.15742 -0.15298 -0.11471 -0.22602 0.45133 -0.051199 -0.1013 0.045189 -0.10289 -0.11649 0.54567 -0.16034 0.27147 -0.07655 -0.47862 -0.23482 0.052976 0.2787 0.028997 0.28734 
눈을 0.36517 0.037125 0.82265 -0.11997 -0.19955 -0.45094 0.10161 0.019525 0.061365 -0.0061476 -0.19029 -0.13732 -0.03841 0.054175 0.11781 -0.39532 -0.098543 0.037453 0.35078 -0.25116 0.32836 0.0025379 -0.085711 -0.055858 0.22862 0.34071 0.26454 -0.016058 0.040139 0.29849 0.15283 0.01808 0.081481 0.53526 -0.52844 0.16853 -0.27399 -0.23748 -0.52156 -0.043902 -0.068249 0.077879 0.22893 -0.057449 0.19122 -0.080672 -0.35828 0.41344 -0.12986 0.20353 -0.43345 -0.045125 0.32686 -0.15412 -0.13269 0.044754 -0.26503 0.19673 -0.38706 -0.054597 -0.39126 -0.41645 -0.021657 -0.27928 0.27114 0.040825 -0.085887 -0.13733 0.024516 -0.27738 -0.13951 -0.15379 0.15568 -0.028484 0.13225 -0.12482 -0.026582 -0.044098 -0.11736 0.44557 0.16943 -0.16869 -0.11617 -0.23795 0.48598 -0.054541 -0.10881 0.045576 -0.10029 -0.12224 0.58784 -0.17807 0.29398 -0.083562 -0.51104 -0.24851 0.050342 0.28854 0.027474 0.29954 
이내 0.3309 0.030745 0.74419 -0.10765 -0.18162 -0.41386 0.087683 0.019333 0.054542 0.00049726 -0.17446 -0.1252 -0.035699 0.054007 0.10857 -0.3627 -0.086039 0.036908 0.31909 -0.23321 0.30044 0.0045568 -0.077708 -0.050826 0.20548 0.31061 0.24368 -0.014982 0.030641 0.27214 0.14123 0.023068 0.077132 0.48368 -0.48002 0.15127 -0.25007 -0.2123 -0.47444 -0.041866 -0.071745 0.070055 0.21156 -0.05299 0.17157 -0.068241 -0.32184 0.36946 -0.11932 0.18305 -0.39846 -0.037754 0.29689 -0.13716 -0.11393 0.034314 -0.24148 0.17508 -0.34761 -0.051972 -0.35194 -0.37931 -0.020918 -0.24625 0.25203 0.030734 -0.074387 -0.13325 0.019106 -0.25282 -0.13224 -0.13998 0.14057 -0.030372 0.12071 -0.11533 -0.027095 -0.038294 -0.10099 0.40064 0.15394 -0.14645 -0.10491 -0.21504 0.44191 -0.051671 -0.096609 0.034824 -0.08977 -0.11833 0.52875 -0.15334 0.26302 -0.066954 -0.46242 -0.22909 0.042646 0.26691 0.026755 0.27689 
또 0.31109 0.033334 0.69114 -0.095617 -0.17636 -0.38048 0.088878 0.023512 0.053997 -0.0059292 -0.15644 -0.12252 -0.040422 0.055332 0.10126 -0.33873 -0.077769 0.034639 0.29185 -0.21927 0.2794 0.0055408 -0.082345 -0.052312 0.19027 0.28324 0.22562 -0.016116 0.035251 0.26272 0.13192 0.029123 0.070307 0.44678 -0.45232 0.14156 -0.23084 -0.19595 -0.42757 -0.041249 -0.061196 0.057052 0.1925 -0.048591 0.16849 -0.056367 -0.3064 0.34371 -0.11383 0.16974 -0.36951 -0.034326 0.27225 -0.13568 -0.10484 0.029193 -0.22347 0.16405 -0.31703 -0.048487 -0.32696 -0.35365 -0.017628 -0.22339 0.23458 0.031403 -0.070863 -0.12529 0.024161 -0.23801 -0.12316 -0.12576 0.12749 -0.024556 0.10881 -0.096554 -0.018159 -0.034194 -0.094057 0.36541 0.13691 -0.14459 -0.10078 -0.1888 0.41476 -0.046183 -0.083424 0.035145 -0.089056 -0.10424 0.48709 -0.14547 0.24964 -0.059602 -0.42556 -0.20528 0.039154 0.24604 0.023566 0.25773 
보았다. 0.39922 0.03239 0.88351 -0.13465 -0.22581 -0.48886 0.11757 0.02206 0.072109 -0.006897 -0.20816 -0.1497 -0.034849 0.053508 0.12455 -0.42385 -0.10954 0.037204 0.38406 -0.2677 0.351 0.0045903 -0.081125 -0.056797 0.2369 0.36199 0.28389 -0.015472 0.04177 0.33134 0.17005 0.025062 0.088278 0.5755 -0.56289 0.17148 -0.30488 -0.25877 -0.55443 -0.055043 -0.074199 0.079562 0.25595 -0.061071 0.20202 -0.081836 -0.38882 0.42959 -0.13916 0.22512 -0.459 -0.048074 0.34775 -0.17442 -0.13964 0.039166 -0.27501 0.20923 -0.41165 -0.062739 -0.42145 -0.45187 -0.027969 -0.30011 0.29545 0.039191 -0.096923 -0.14625 0.017082 -0.30267 -0.15203 -0.15363 0.16389 -0.036721 0.14327 -0.13003 -0.031573 -0.046066 -0.11994 0.46632 0.17368 -0.17345 -0.12288 -0.25201 0.52431 -0.048775 -0.11578 0.048588 -0.11966 -0.13089 0.61879 -0.19306 0.30693 -0.077579 -0.55566 -0.26285 0.054429 0.30464 0.023923 0.32517 
하는 0.44047 0.043454 1.0001 -0.14264 -0.24847 -0.5509 0.11822 0.023825 0.071674 -0.0062063 -0.23363 -0.16547 -0.044952 0.072431 0.14728 -0.48381 -0.11334 0.053018 0.42077 -0.30603 0.39957 0.0035404 -0.10501 -0.070232 0.26822 0.40984 0.32554 -0.022451 0.045773 0.36715 0.18947 0.028776 0.10038 0.64679 -0.6484 0.20565 -0.32876 -0.28739 -0.61788 -0.054418 -0.084109 0.092322 0.27965 -0.074795 0.23113 -0.086466 -0.43656 0.49854 -0.16264 0.24485 -0.52462 -0.049199 0.38781 -0.19186 -0.1572 0.054605 -0.31291 0.24002 -0.46065 -0.068297 -0.47082 -0.50558 -0.030056 -0.33501 0.33704 0.039004 -0.10359 -0.17455 0.027536 -0.33274 -0.1681 -0.18466 0.18493 -0.043893 0.16539 -0.14348 -0.029296 -0.054055 -0.14199 0.53299 0.19496 -0.20163 -0.13969 -0.28561 0.59481 -0.061259 -0.11971 0.051259 -0.12268 -0.14972 0.70118 -0.20466 0.3481 -0.093828 -0.61987 -0.2952 0.062465 0.35511 0.032773 0.37236 
하지만 0.39309 0.047421 0.87923 -0.12758 -0.21616 -0.48204 0.10887 0.026298 0.061667 -0.002141 -0.20479 -0.15161 -0.043245 0.060665 0.13056 -0.42167 -0.10466 0.046144 0.37958 -0.27244 0.35033 0.0046002 -0.092203 -0.065275 0.24453 0.36008 0.28972 -0.012135 0.034635 0.32524 0.16709 0.023779 0.093288 0.56527 -0.57019 0.17958 -0.29117 -0.25485 -0.54672 -0.052133 -0.074233 0.084522 0.25259 -0.066815 0.2061 -0.076483 -0.38081 0.43852 -0.14138 0.2177 -0.46705 -0.043341 0.3523 -0.17052 -0.13937 0.041952 -0.27823 0.2133 -0.40891 -0.057086 -0.41579 -0.44345 -0.024485 -0.29452 0.29555 0.037235 -0.093998 -0.15195 0.027521 -0.30088 -0.15171 -0.1661 0.15893 -0.032275 0.14405 -0.1285 -0.030538 -0.043613 -0.11646 0.46923 0.17571 -0.17673 -0.12861 -0.25074 0.52059 -0.056626 -0.10932 0.051248 -0.11048 -0.13373 0.62195 -0.18666 0.31124 -0.086884 -0.54466 -0.26245 0.051601 0.31219 0.030803 0.3276 
" 0.27261 0.031578 0.60112 -0.090056 -0.14376 -0.33939 0.069104 0.019014 0.04398 -0.0042865 -0.14695 -0.097209 -0.030069 0.038696 0.08362 -0.28961 -0.069833 0.034018 0.25541 -0.19185 0.24572 -0.004294 -0.063866 -0.038348 0.16295 0.24077 0.1928 -0.001556 0.029339 0.21744 0.11451 0.013829 0.064253 0.39117 -0.38893 0.12936 -0.2019 -0.17169 -0.3807 -0.037675 -0.045672 0.062077 0.16464 -0.046372 0.13694 -0.055384 -0.25555 0.30181 -0.090006 0.15125 -0.32846 -0.030676 0.2449 -0.11122 -0.097762 0.029412 -0.18753 0.14292 -0.28031 -0.042314 -0.28462 -0.3028 -0.014809 -0.20251 0.2047 0.024795 -0.069227 -0.10766 0.019005 -0.1981 -0.10423 -0.11685 0.10574 -0.025288 0.09919 -0.082623 -0.022164 -0.031528 -0.08582 0.3215 0.12281 -0.12091 -0.089716 -0.16891 0.35221 -0.043344 -0.071377 0.038952 -0.073552 -0.093733 0.42629 -0.12354 0.21276 -0.046777 -0.36942 -0.18865 0.033824 0.21926 0.021401 0.22199 
더 0.35967 0.033246 0.80679 -0.11388 -0.19567 -0.44433 0.093063 0.024931 0.057409 0.0045313 -0.18709 -0.13432 -0.033388 0.059664 0.11903 -0.39204 -0.089397 0.039508 0.33797 -0.2549 0.32059 -0.00094788 -0.080145 -0.062346 0.22432 0.3363 0.26141 -0.015282 0.03504 0.299 0.15563 0.016767 0.08194 0.52732 -0.52822 0.16738 -0.27165 -0.23642 -0.50556 -0.050412 -0.066882 0.072129 0.23387 -0.055641 0.19231 -0.075898 -0.35379 0.40734 -0.1337 0.21038 -0.42119 -0.046897 0.31557 -0.1499 -0.1249 0.041912 -0.26114 0.18751 -0.37193 -0.049744 -0.37235 -0.41155 -0.023375 -0.26449 0.27364 0.028687 -0.089454 -0.13916 0.023777 -0.27695 -0.13823 -0.15304 0.14812 -0.026949 0.1325 -0.11398 -0.029409 -0.042661 -0.10558 0.42817 0.16761 -0.16563 -0.11805 -0.23578 0.4746 -0.047475 -0.10671 0.048139 -0.10116 -0.12032 0.56773 -0.17583 0.28219 -0.080959 -0.49484 -0.23856 0.048947 0.28895 0.028383 0.30213 
마법학교 0.45232 0.057912 1.0232 -0.13792 -0.25857 -0.54771 0.12258 0.015114 0.076828 -0.003143 -0.23374 -0.17473 -0.047407 0.081213 0.15656 -0.48318 -0.1073 0.038337 0.41954 -0.30427 0.41052 0.0068083 -0.10026 -0.07523 0.27275 0.40587 0.32834 -0.020236 0.040371 0.35744 0.17893 0.021846 0.097181 0.65562 -0.65519 0.20302 -0.32982 -0.28645 -0.63473 -0.068763 -0.091484 0.096226 0.2664 -0.093946 0.22762 -0.091689 -0.42156 0.50468 -0.1481 0.24375 -0.542 -0.057219 0.38958 -0.19125 -0.16384 0.051624 -0.32698 0.24161 -0.46907 -0.056883 -0.47047 -0.49636 -0.024208 -0.3364 0.34615 0.026462 -0.10548 -0.16761 0.041624 -0.32188 -0.16801 -0.19734 0.18391 -0.038839 0.16101 -0.14609 -0.023806 -0.044737 -0.14323 0.53632 0.20424 -0.2011 -0.15088 -0.29953 0.57663 -0.057188 -0.11608 0.051576 -0.11946 -0.16083 0.71632 -0.20415 0.36053 -0.089592 -0.61276 -0.29589 0.048975 0.36594 0.04887 0.37353 
다른 0.37795 0.044819 0.83501 -0.11973 -0.2095 -0.46253 0.10203 0.02374 0.061853 -0.0038778 -0.1983 -0.13883 -0.041636 0.06092 0.12412 -0.4076 -0.095967 0.038278 0.35416 -0.26089 0.33777 0.00033382 -0.085124 -0.058744 0.23445 0.34416 0.2723 -0.01509 0.033172 0.30541 0.1565 0.02302 0.082881 0.5455 -0.54068 0.16316 -0.28029 -0.23639 -0.52184 -0.046812 -0.069297 0.07851 0.23474 -0.066658 0.20119 -0.074532 -0.36604 0.42298 -0.13348 0.21002 -0.43941 -0.043144 0.33336 -0.15575 -0.12725 0.041253 -0.26702 0.20418 -0.39515 -0.051438 -0.39193 -0.42419 -0.025875 -0.27966 0.27873 0.035572 -0.091932 -0.14565 0.032076 -0.28159 -0.13983 -0.16232 0.15927 -0.03453 0.13721 -0.12593 -0.027589 -0.042802 -0.11182 0.45007 0.16948 -0.16673 -0.11616 -0.24597 0.49289 -0.049004 -0.10171 0.042349 -0.1082 -0.13057 0.59571 -0.18251 0.29937 -0.072552 -0.52009 -0.26195 0.057685 0.29801 0.029457 0.31442 
몸을 0.3836 0.043213 0.85867 -0.1264 -0.20916 -0.47339 0.10802 0.026991 0.062485 -0.0050968 -0.19675 -0.14185 -0.041923 0.063084 0.12414 -0.41734 -0.093372 0.040333 0.36332 -0.25915 0.34349 0.004802 -0.092595 -0.056135 0.23026 0.35175 0.27666 -0.013121 0.037802 0.31265 0.16511 0.025253 0.085662 0.54916 -0.55132 0.17112 -0.28297 -0.24098 -0.53698 -0.051619 -0.07495 0.081451 0.23904 -0.066814 0.20519 -0.076051 -0.36876 0.43024 -0.13929 0.21371 -0.44794 -0.040171 0.34519 -0.16809 -0.13472 0.040898 -0.27038 0.20651 -0.39439 -0.05564 -0.40544 -0.43419 -0.016365 -0.29207 0.2899 0.038091 -0.090821 -0.146 0.025455 -0.2914 -0.14732 -0.15817 0.16321 -0.036337 0.14278 -0.12668 -0.031191 -0.049662 -0.11937 0.45259 0.16667 -0.16983 -0.12937 -0.24439 0.50432 -0.055781 -0.113 0.044004 -0.10809 -0.1271 0.60305 -0.18465 0.30132 -0.083031 -0.53382 -0.25451 0.05383 0.30115 0.027076 0.31681 
같았다. 0.33978 0.028142 0.74975 -0.1172 -0.1874 -0.41273 0.10137 0.011407 0.061156 -0.0082332 -0.17017 -0.12699 -0.029249 0.047416 0.10732 -0.36238 -0.09121 0.034419 0.32269 -0.22831 0.29706 0.003147 -0.06837 -0.048116 0.20754 0.30478 0.23956 -0.0096379 0.041594 0.27812 0.14654 0.025162 0.074192 0.48171 -0.47704 0.14239 -0.26071 -0.21527 -0.4671 -0.044287 -0.059723 0.075076 0.21368 -0.054304 0.17079 -0.069349 -0.32987 0.36226 -0.12105 0.19474 -0.38833 -0.041651 0.29566 -0.1425 -0.11316 0.038059 -0.23407 0.17436 -0.34727 -0.053029 -0.35202 -0.38154 -0.022575 -0.25354 0.25343 0.029002 -0.079796 -0.12872 0.016823 -0.25729 -0.13059 -0.13464 0.13922 -0.033009 0.11977 -0.10843 -0.030171 -0.04215 -0.10283 0.39839 0.1474 -0.14809 -0.10463 -0.21033 0.44158 -0.042368 -0.098633 0.04346 -0.1065 -0.11168 0.52449 -0.16129 0.26205 -0.068466 -0.47347 -0.22376 0.047465 0.26172 0.020823 0.27667 
다 0.34049 0.037865 0.78451 -0.10577 -0.19755 -0.4407 0.090309 0.022597 0.060038 -0.0079561 -0.18314 -0.12679 -0.040696 0.056927 0.11092 -0.38192 -0.086453 0.042202 0.33125 -0.2396 0.31621 -0.0063263 -0.082758 -0.048869 0.21079 0.31646 0.25327 -0.015968 0.032833 0.29279 0.15071 0.013737 0.081679 0.51069 -0.50347 0.16334 -0.26557 -0.21745 -0.49508 -0.043485 -0.076914 0.079397 0.22237 -0.062264 0.1819 -0.07581 -0.33518 0.39232 -0.13415 0.20139 -0.41384 -0.046702 0.31239 -0.14701 -0.12538 0.040289 -0.25641 0.19478 -0.3653 -0.050906 -0.37401 -0.39734 -0.020519 -0.26689 0.26764 0.03252 -0.078128 -0.14066 0.028801 -0.26411 -0.12662 -0.14408 0.15126 -0.035581 0.12878 -0.11431 -0.028105 -0.047131 -0.10671 0.41278 0.16369 -0.15484 -0.11078 -0.21497 0.47078 -0.045492 -0.095424 0.038355 -0.095936 -0.12647 0.56299 -0.17206 0.28201 -0.070584 -0.49346 -0.22931 0.04585 0.27932 0.02809 0.28528 
그렇게 0.32236 0.035657 0.72213 -0.10308 -0.17863 -0.39617 0.088499 0.020844 0.053217 -0.0037527 -0.16646 -0.11997 -0.033079 0.051672 0.10608 -0.35274 -0.082678 0.035323 0.30683 -0.22417 0.28666 -0.00036569 -0.07403 -0.050335 0.19989 0.29382 0.23452 -0.015155 0.034191 0.26662 0.13761 0.020124 0.074255 0.46949 -0.46817 0.14717 -0.23587 -0.20556 -0.45196 -0.04205 -0.060138 0.068948 0.19885 -0.05495 0.17048 -0.064248 -0.31585 0.36294 -0.1162 0.18192 -0.37888 -0.036348 0.28454 -0.13341 -0.1103 0.038247 -0.22643 0.17671 -0.34002 -0.0433 -0.33694 -0.36436 -0.021235 -0.24062 0.24554 0.03128 -0.073086 -0.12404 0.024234 -0.24298 -0.12582 -0.1392 0.1362 -0.029986 0.11794 -0.10696 -0.020252 -0.041309 -0.098088 0.38529 0.14564 -0.14678 -0.10185 -0.20608 0.429 -0.041444 -0.081802 0.03993 -0.091082 -0.10767 0.51063 -0.15147 0.25476 -0.072201 -0.44774 -0.21459 0.043119 0.25881 0.025548 0.2653 
이 0.27289 0.028549 0.61591 -0.081424 -0.15127 -0.34164 0.080284 0.015315 0.049206 -0.003486 -0.14094 -0.099864 -0.025621 0.039263 0.089806 -0.29416 -0.069676 0.032024 0.26276 -0.19129 0.24737 -0.0012682 -0.060269 -0.046022 0.16842 0.24934 0.20433 -0.0066526 0.026815 0.22471 0.12077 0.018317 0.062013 0.3969 -0.39272 0.12229 -0.20675 -0.17358 -0.38679 -0.037237 -0.05123 0.063597 0.17474 -0.047464 0.14728 -0.059522 -0.25855 0.30607 -0.094359 0.15067 -0.32502 -0.027431 0.24027 -0.11725 -0.089999 0.022847 -0.19025 0.14751 -0.29176 -0.040769 -0.29069 -0.31398 -0.018191 -0.20734 0.20809 0.026524 -0.065545 -0.10449 0.01793 -0.21449 -0.10517 -0.11621 0.11043 -0.031468 0.10799 -0.088587 -0.020167 -0.031722 -0.077957 0.31924 0.12278 -0.1254 -0.08547 -0.17932 0.36271 -0.038055 -0.075966 0.034082 -0.076113 -0.094427 0.42916 -0.13363 0.21651 -0.051829 -0.37331 -0.17797 0.037101 0.21319 0.021746 0.22504 
륜 0.31773 0.037678 0.7307 -0.11153 -0.18147 -0.39936 0.091202 0.022111 0.051256 -0.013554 -0.16405 -0.12757 -0.035361 0.051057 0.10914 -0.35009 -0.078818 0.031289 0.31389 -0.21897 0.29628 0.0032253 -0.081919 -0.045588 0.20714 0.30081 0.24195 -0.02378 0.038561 0.26374 0.14431 0.017123 0.06789 0.46733 -0.47104 0.15099 -0.24323 -0.20388 -0.45288 -0.038743 -0.060749 0.069832 0.20442 -0.062384 0.17579 -0.057302 -0.31496 0.36604 -0.12804 0.17773 -0.39354 -0.036504 0.29015 -0.12546 -0.12034 0.041909 -0.22841 0.18043 -0.33983 -0.049598 -0.33753 -0.36902 -0.027944 -0.2456 0.24395 0.027429 -0.076082 -0.13299 0.021457 -0.25277 -0.12508 -0.14161 0.1346 -0.035791 0.1131 -0.1056 -0.018312 -0.039799 -0.10197 0.39238 0.15552 -0.14955 -0.10673 -0.21121 0.43651 -0.037597 -0.090248 0.036969 -0.10146 -0.11283 0.51229 -0.14477 0.25956 -0.068625 -0.45379 -0.21754 0.045254 0.26291 0.017171 0.26453 
한 0.41933 0.050029 0.9434 -0.12983 -0.22824 -0.52244 0.10977 0.019358 0.074289 -0.0034375 -0.21641 -0.15435 -0.052302 0.066512 0.13247 -0.44458 -0.10433 0.042106 0.40617 -0.29107 0.37128 0.00060471 -0.09831 -0.073337 0.25197 0.38551 0.30261 -0.011131 0.049713 0.34245 0.17792 0.033973 0.09009 0.61478 -0.59975 0.19355 -0.31202 -0.26919 -0.58345 -0.046842 -0.085626 0.090936 0.25922 -0.08054 0.21141 -0.08062 -0.40629 0.47347 -0.14257 0.23113 -0.49949 -0.047572 0.37078 -0.17096 -0.13745 0.045162 -0.29933 0.22396 -0.44477 -0.058518 -0.43263 -0.46959 -0.025952 -0.31215 0.31278 0.04183 -0.10072 -0.17111 0.030698 -0.31622 -0.15826 -0.17569 0.17001 -0.032263 0.15688 -0.13274 -0.031836 -0.05483 -0.12893 0.49536 0.18728 -0.19045 -0.13698 -0.26271 0.55027 -0.053708 -0.1116 0.049669 -0.12501 -0.14429 0.65726 -0.19316 0.32515 -0.080179 -0.58414 -0.27792 0.054473 0.33229 0.033016 0.34134 
륜을 0.32659 0.031701 0.7252 -0.10809 -0.17793 -0.4004 0.09356 0.024904 0.057382 -0.004263 -0.16756 -0.12591 -0.038933 0.048123 0.10794 -0.35269 -0.080695 0.03086 0.30883 -0.21962 0.28989 0.0025976 -0.07022 -0.046898 0.20049 0.29956 0.23703 -0.012476 0.032126 0.27269 0.14399 0.023609 0.076093 0.47378 -0.47095 0.14717 -0.24476 -0.20266 -0.46022 -0.04399 -0.057998 0.070637 0.20593 -0.053144 0.17218 -0.070449 -0.31996 0.35966 -0.11977 0.18059 -0.38483 -0.035554 0.29098 -0.13722 -0.1095 0.037697 -0.22764 0.17486 -0.34135 -0.044693 -0.3465 -0.37189 -0.024678 -0.2408 0.24241 0.030989 -0.077685 -0.12617 0.023403 -0.2517 -0.12453 -0.13531 0.13426 -0.027149 0.12402 -0.11032 -0.026421 -0.039561 -0.099554 0.38739 0.14704 -0.15156 -0.10717 -0.21092 0.4353 -0.045523 -0.091664 0.046073 -0.093324 -0.11246 0.51185 -0.15015 0.26045 -0.070014 -0.45608 -0.21895 0.04224 0.25409 0.025197 0.2735 
함께 0.32267 0.034422 0.73289 -0.10053 -0.17777 -0.40243 0.082686 0.023506 0.055831 -0.0057487 -0.17109 -0.12246 -0.035191 0.053293 0.10256 -0.35712 -0.078884 0.038871 0.31064 -0.23004 0.29878 0.00098061 -0.082676 -0.04463 0.20247 0.29757 0.23876 -0.011517 0.037934 0.26532 0.13571 0.017772 0.073029 0.46877 -0.47302 0.14578 -0.24422 -0.21017 -0.46497 -0.046249 -0.064003 0.071174 0.21151 -0.055168 0.16947 -0.059712 -0.32357 0.36819 -0.11443 0.17924 -0.38258 -0.037303 0.29548 -0.1422 -0.11519 0.042058 -0.2316 0.1813 -0.33993 -0.047897 -0.34838 -0.37832 -0.01955 -0.24934 0.23993 0.025286 -0.0801 -0.12745 0.024957 -0.25291 -0.1197 -0.14016 0.13446 -0.026379 0.12339 -0.10907 -0.027342 -0.043879 -0.10072 0.39354 0.15179 -0.14128 -0.10764 -0.21175 0.42599 -0.049072 -0.095492 0.04437 -0.095991 -0.10686 0.51753 -0.15315 0.26416 -0.071847 -0.45218 -0.21906 0.04912 0.26654 0.023879 0.27151 
붉은 0.44314 0.044736 1.0048 -0.14322 -0.24311 -0.55385 0.12034 0.024851 0.074413 -0.0068581 -0.23123 -0.16855 -0.051279 0.070846 0.14302 -0.48085 -0.11673 0.053147 0.42572 -0.31019 0.40353 0.0057512 -0.10478 -0.067848 0.27027 0.41704 0.3285 -0.018582 0.047207 0.37038 0.19042 0.028005 0.10869 0.65416 -0.64234 0.2098 -0.33421 -0.28553 -0.63306 -0.05911 -0.083113 0.090799 0.28603 -0.080547 0.22903 -0.089792 -0.44634 0.50618 -0.16205 0.2467 -0.53202 -0.04737 0.40048 -0.18438 -0.15435 0.05234 -0.31855 0.2405 -0.47514 -0.065779 -0.4761 -0.50952 -0.02551 -0.33447 0.33949 0.051248 -0.10964 -0.17541 0.029035 -0.3406 -0.17253 -0.18834 0.19197 -0.040144 0.15868 -0.15188 -0.036868 -0.05508 -0.13415 0.54302 0.19841 -0.20178 -0.13992 -0.28859 0.59469 -0.061537 -0.12315 0.052769 -0.13017 -0.15374 0.70763 -0.21598 0.35086 -0.097009 -0.62723 -0.30599 0.060361 0.35708 0.032436 0.37292 
반공은 0.42043 0.047843 0.94852 -0.1399 -0.23636 -0.52606 0.11432 0.026014 0.07528 -0.0053346 -0.21945 -0.16005 -0.049785 0.063708 0.1351 -0.45806 -0.105 0.045415 0.40715 -0.29219 0.38125 0.00083923 -0.10158 -0.06618 0.26104 0.38703 0.30941 -0.019284 0.04625 0.34981 0.18399 0.029662 0.097215 0.61531 -0.61218 0.18899 -0.31453 -0.26939 -0.5962 -0.055268 -0.086455 0.0931 0.27112 -0.068759 0.22447 -0.083311 -0.41005 0.47499 -0.15388 0.23966 -0.49874 -0.048292 0.37629 -0.18025 -0.15306 0.043097 -0.30343 0.23055 -0.44243 -0.058847 -0.44767 -0.47783 -0.031817 -0.32127 0.32303 0.037007 -0.095633 -0.16366 0.023867 -0.32191 -0.16069 -0.17979 0.1715 -0.033385 0.15575 -0.13896 -0.027038 -0.053734 -0.12996 0.50663 0.19212 -0.19434 -0.13709 -0.27414 0.55919 -0.061206 -0.11622 0.050602 -0.1206 -0.14545 0.67213 -0.19809 0.33651 -0.086763 -0.58763 -0.28745 0.061573 0.33682 0.031664 0.35729 
칸 0.33519 0.034631 0.74439 -0.10928 -0.18383 -0.41441 0.097707 0.019558 0.066898 -0.0060088 -0.17758 -0.12493 -0.029811 0.048722 0.10381 -0.35744 -0.087735 0.043305 0.31731 -0.22763 0.30074 0.0038855 -0.074532 -0.04641 0.20102 0.30499 0.24801 -0.01305 0.039329 0.28418 0.1466 0.024711 0.07943 0.48354 -0.48149 0.15165 -0.25298 -0.20449 -0.4637 -0.051551 -0.063957 0.078666 0.20753 -0.049845 0.16947 -0.063949 -0.32599 0.3737 -0.12254 0.19286 -0.39355 -0.039744 0.28974 -0.13965 -0.11909 0.044434 -0.24709 0.17992 -0.34401 -0.038491 -0.34402 -0.36682 -0.030318 -0.25847 0.25871 0.03635 -0.068065 -0.13828 0.023207 -0.26274 -0.13218 -0.13079 0.13858 -0.032204 0.1212 -0.11873 -0.027486 -0.036112 -0.10354 0.40383 0.1515 -0.15043 -0.11103 -0.21359 0.43766 -0.045244 -0.097708 0.045607 -0.096021 -0.11033 0.53651 -0.16028 0.26354 -0.065772 -0.46718 -0.22387 0.042591 0.26401 0.029544 0.26963 
것이다. 0.38868 0.033696 0.86834 -0.13189 -0.219 -0.47764 0.11431 0.021626 0.065212 -0.0091658 -0.19991 -0.14951 -0.039538 0.056117 0.12826 -0.4185 -0.1005 0.041298 0.37727 -0.26627 0.34798 0.0074994 -0.087398 -0.05888 0.23836 0.35718 0.2807 -0.012099 0.040981 0.32794 0.16719 0.030941 0.087585 0.56291 -0.56115 0.17201 -0.29851 -0.25092 -0.54474 -0.052125 -0.072855 0.083993 0.2488 -0.064512 0.20157 -0.081683 -0.38214 0.43159 -0.14114 0.21962 -0.45749 -0.045413 0.34433 -0.16507 -0.13971 0.044668 -0.27607 0.20821 -0.40654 -0.060218 -0.41173 -0.44131 -0.025365 -0.29114 0.29212 0.037627 -0.094982 -0.14548 0.01899 -0.29473 -0.15095 -0.15948 0.16345 -0.03782 0.14131 -0.12823 -0.034143 -0.045271 -0.1129 0.46068 0.17263 -0.17718 -0.12289 -0.25012 0.5134 -0.051199 -0.11216 0.051218 -0.11545 -0.13227 0.61113 -0.18661 0.30332 -0.080134 -0.54481 -0.25429 0.052088 0.30301 0.027761 0.32213 
그녀를 0.32342 0.027779 0.72068 -0.10287 -0.18024 -0.39888 0.089754 0.018693 0.051422 -0.0061701 -0.16869 -0.1185 -0.033251 0.047331 0.10647 -0.34906 -0.084267 0.038815 0.31448 -0.21467 0.28604 -0.0017215 -0.071268 -0.047316 0.1998 0.29948 0.24011 -0.011453 0.033577 0.26277 0.14133 0.019378 0.075716 0.46813 -0.46598 0.13977 -0.24608 -0.20672 -0.44889 -0.043259 -0.057035 0.074599 0.20963 -0.053576 0.16751 -0.068982 -0.31476 0.36297 -0.11809 0.18595 -0.37864 -0.0382 0.28884 -0.13727 -0.11766 0.034629 -0.23167 0.17166 -0.33329 -0.049827 -0.34183 -0.36866 -0.017916 -0.2483 0.24319 0.034891 -0.079428 -0.12556 0.022218 -0.24513 -0.12713 -0.13042 0.13343 -0.030981 0.11842 -0.1082 -0.025438 -0.035023 -0.096702 0.38869 0.14543 -0.14811 -0.10366 -0.20699 0.42942 -0.04164 -0.089065 0.041561 -0.093729 -0.11079 0.51466 -0.15438 0.25431 -0.072256 -0.45173 -0.22178 0.040285 0.25627 0.021118 0.26926 
학교※ 0.20511 0.019541 0.44896 -0.057699 -0.10464 -0.2508 0.058074 0.015948 0.032238 -0.0013898 -0.11183 -0.078342 -0.019879 0.033143 0.062072 -0.2136 -0.044433 0.019845 0.17971 -0.13946 0.1817 0.0035136 -0.043617 -0.047326 0.12885 0.18008 0.14841 -0.0072061 0.017189 0.16155 0.074178 0.0098297 0.045335 0.29404 -0.28744 0.092677 -0.14939 -0.13235 -0.28041 -0.019603 -0.047761 0.030316 0.11793 -0.038028 0.099109 -0.031901 -0.18588 0.23355 -0.057343 0.11069 -0.237 -0.024796 0.1859 -0.082639 -0.071798 0.021844 -0.14283 0.11266 -0.21151 -0.032086 -0.21135 -0.2326 -0.016123 -0.14896 0.15744 0.0050607 -0.050279 -0.09231 0.015745 -0.13993 -0.069646 -0.08778 0.083796 -0.028735 0.062474 -0.070283 -0.0075785 -0.019963 -0.060092 0.24793 0.092531 -0.086218 -0.064 -0.1254 0.25794 -0.021777 -0.038146 0.017069 -0.054184 -0.068698 0.32803 -0.088841 0.15675 -0.035806 -0.27466 -0.13657 0.032908 0.16738 0.018465 0.16369 
레드 0.29664 0.035086 0.68262 -0.10522 -0.17089 -0.36733 0.083206 0.017947 0.051179 -0.010311 -0.15629 -0.10801 -0.034932 0.050475 0.097703 -0.32631 -0.081136 0.023778 0.2834 -0.2058 0.27381 0.0051071 -0.075645 -0.052442 0.19224 0.27174 0.22104 -0.016388 0.032056 0.2454 0.12464 0.021643 0.071094 0.43784 -0.43117 0.1392 -0.22726 -0.19562 -0.41446 -0.033901 -0.063292 0.062617 0.19178 -0.050188 0.15447 -0.062388 -0.29233 0.34052 -0.12132 0.165 -0.35801 -0.037127 0.26691 -0.12277 -0.10975 0.036722 -0.21978 0.15896 -0.31422 -0.042587 -0.31803 -0.33673 -0.025352 -0.2292 0.22101 0.028369 -0.068904 -0.12122 0.025049 -0.231 -0.11371 -0.1269 0.1298 -0.025714 0.11541 -0.10485 -0.021606 -0.032163 -0.091744 0.35348 0.13425 -0.13518 -0.10164 -0.19971 0.40153 -0.048016 -0.086495 0.03335 -0.085415 -0.10306 0.47481 -0.14379 0.23837 -0.065076 -0.41803 -0.20674 0.031522 0.24319 0.026538 0.24978 
주었다. 0.38674 0.028318 0.85501 -0.13044 -0.21144 -0.47348 0.114 0.020695 0.070131 -0.013681 -0.19584 -0.14205 -0.039756 0.052968 0.12527 -0.41261 -0.10281 0.037938 0.37454 -0.26474 0.34291 0.004442 -0.075567 -0.057679 0.23464 0.35237 0.2769 -0.015304 0.03908 0.32367 0.17011 0.028345 0.083233 0.55745 -0.55254 0.16289 -0.29479 -0.24912 -0.53871 -0.052175 -0.074637 0.085655 0.25214 -0.06259 0.19766 -0.083773 -0.37897 0.41554 -0.14043 0.21611 -0.4443 -0.040899 0.34072 -0.17077 -0.13388 0.039895 -0.26899 0.20187 -0.39735 -0.059509 -0.40267 -0.4362 -0.02361 -0.29177 0.28575 0.043952 -0.097301 -0.14491 0.018729 -0.29541 -0.15153 -0.15383 0.16424 -0.039577 0.13523 -0.12414 -0.031859 -0.04598 -0.11417 0.45183 0.16892 -0.17296 -0.12126 -0.24743 0.50616 -0.052865 -0.10994 0.048274 -0.11581 -0.13441 0.60156 -0.18274 0.29517 -0.07594 -0.54066 -0.25651 0.054244 0.30029 0.02211 0.31576 
이미 0.33555 0.034676 0.75883 -0.10701 -0.18997 -0.42237 0.091926 0.018243 0.049045 -0.0030056 -0.17155 -0.12507 -0.03874 0.04681 0.10617 -0.364 -0.087059 0.037332 0.31789 -0.2296 0.30557 0.0014208 -0.083809 -0.050736 0.21095 0.30603 0.24792 -0.013389 0.035968 0.28006 0.14594 0.013801 0.082962 0.49067 -0.48848 0.14939 -0.25544 -0.21681 -0.47428 -0.04584 -0.065502 0.075576 0.21311 -0.055759 0.18257 -0.065765 -0.33013 0.37736 -0.12201 0.18478 -0.4031 -0.039919 0.30194 -0.13548 -0.11857 0.038102 -0.24386 0.18795 -0.3577 -0.047757 -0.35761 -0.37904 -0.021734 -0.25495 0.25675 0.026396 -0.078839 -0.13294 0.022758 -0.25248 -0.13053 -0.13877 0.14223 -0.026077 0.12754 -0.11175 -0.027688 -0.036868 -0.097434 0.40554 0.15982 -0.15269 -0.1092 -0.21684 0.44845 -0.046005 -0.093903 0.044688 -0.093871 -0.11596 0.53635 -0.16864 0.26508 -0.071157 -0.47009 -0.23338 0.045523 0.26979 0.023349 0.27513 
학생들은 0.43911 0.04589 0.98389 -0.14029 -0.24651 -0.53691 0.11985 0.019867 0.072378 -0.0021806 -0.23079 -0.16449 -0.048103 0.069217 0.14218 -0.47664 -0.11185 0.049332 0.41506 -0.30168 0.39387 0.0070874 -0.10119 -0.070899 0.26984 0.40335 0.31586 -0.020703 0.046718 0.35888 0.18685 0.02688 0.10323 0.63592 -0.63281 0.19641 -0.33123 -0.28527 -0.61599 -0.051544 -0.07997 0.08983 0.27454 -0.076555 0.22805 -0.087255 -0.42762 0.49097 -0.15185 0.24525 -0.51652 -0.050869 0.38791 -0.18767 -0.15398 0.047029 -0.31352 0.24 -0.45854 -0.066414 -0.46595 -0.49152 -0.029533 -0.32668 0.33241 0.038334 -0.10375 -0.17695 0.027213 -0.32935 -0.1722 -0.18739 0.18676 -0.041424 0.16496 -0.14629 -0.031015 -0.052494 -0.13487 0.5229 0.19821 -0.1955 -0.14143 -0.28349 0.5787 -0.056944 -0.12085 0.055823 -0.12634 -0.14791 0.69414 -0.2138 0.34348 -0.09321 -0.61073 -0.29607 0.064562 0.3522 0.034614 0.36635 
밖에 0.32294 0.028145 0.72569 -0.1008 -0.17774 -0.3985 0.085615 0.017332 0.051316 -0.0056155 -0.17237 -0.12537 -0.039085 0.051169 0.10151 -0.34851 -0.079317 0.032315 0.30269 -0.22511 0.29068 0.010751 -0.079546 -0.053652 0.1949 0.29808 0.23888 -0.013579 0.030654 0.26923 0.1327 0.018811 0.076011 0.47328 -0.47193 0.14667 -0.24587 -0.21231 -0.45043 -0.041277 -0.059834 0.06703 0.20261 -0.061346 0.16894 -0.067616 -0.31811 0.36637 -0.11326 0.18467 -0.38624 -0.030753 0.2889 -0.14123 -0.11147 0.035834 -0.23465 0.18169 -0.33542 -0.043672 -0.33442 -0.36091 -0.015496 -0.24594 0.24299 0.024394 -0.077273 -0.1334 0.025463 -0.24807 -0.11956 -0.13936 0.13379 -0.032992 0.11979 -0.10099 -0.024989 -0.035774 -0.094533 0.39264 0.14581 -0.14535 -0.10722 -0.21189 0.43469 -0.045939 -0.095723 0.037507 -0.092853 -0.11055 0.51299 -0.15689 0.26584 -0.075173 -0.44869 -0.21849 0.05024 0.26498 0.030775 0.26971 
반공의 0.40583 0.043528 0.91875 -0.13209 -0.23039 -0.50752 0.11484 0.030436 0.072227 -0.0043805 -0.2123 -0.15568 -0.048667 0.063549 0.13454 -0.443 -0.10442 0.047616 0.39331 -0.28475 0.36893 0.0010041 -0.090978 -0.065671 0.25429 0.37551 0.30054 -0.018791 0.04309 0.33327 0.17845 0.027135 0.095125 0.59807 -0.59151 0.18176 -0.30494 -0.25782 -0.57453 -0.056379 -0.081372 0.084988 0.26158 -0.069468 0.21398 -0.08398 -0.39644 0.45968 -0.1462 0.23323 -0.48603 -0.047194 0.36137 -0.17644 -0.14336 0.042857 -0.29093 0.22398 -0.42585 -0.059807 -0.43329 -0.4659 -0.021249 -0.31169 0.31181 0.037408 -0.098993 -0.15875 0.023915 -0.31144 -0.15996 -0.17232 0.16769 -0.038624 0.15167 -0.13466 -0.030424 -0.051259 -0.12615 0.49256 0.18924 -0.19025 -0.13569 -0.25891 0.54721 -0.05565 -0.11666 0.048812 -0.11755 -0.14639 0.65241 -0.19105 0.31979 -0.085804 -0.57203 -0.28056 0.060069 0.32759 0.031407 0.34192 
※꿈의 0.17794 0.018795 0.38442 -0.059057 -0.090428 -0.20895 0.047306 0.01937 0.024198 0.0057251 -0.092263 -0.060671 -0.010086 0.029664 0.051592 -0.18158 -0.04312 0.016673 0.15247 -0.11738 0.15605 0.0070426 -0.037407 -0.033637 0.10373 0.14794 0.12644 -0.0070269 0.0067486 0.13398 0.067471 0.007977 0.03784 0.25759 -0.25182 0.078486 -0.12325 -0.10644 -0.24565 -0.024989 -0.030268 0.041026 0.095739 -0.028203 0.08767 -0.028434 -0.16883 0.19906 -0.049491 0.097372 -0.1956 -0.027673 0.15691 -0.073664 -0.063511 0.02625 -0.12644 0.086966 -0.18513 -0.033964 -0.17841 -0.18889 -0.018213 -0.12355 0.14527 0.0060179 -0.041022 -0.071543 0.014182 -0.11615 -0.059058 -0.07392 0.072042 -0.016954 0.061145 -0.059873 -0.0086736 -0.022189 -0.045622 0.20856 0.073169 -0.071702 -0.052516 -0.10665 0.22399 -0.01726 -0.041589 0.019219 -0.050236 -0.058497 0.28635 -0.078361 0.14432 -0.0409 -0.24443 -0.11292 0.031289 0.14979 0.016621 0.15155 
더욱 0.39903 0.040382 0.89158 -0.12449 -0.21644 -0.49446 0.10513 0.028066 0.066669 -0.0045914 -0.2068 -0.15257 -0.045923 0.058976 0.12334 -0.43121 -0.10025 0.047422 0.38035 -0.27329 0.35123 0.0014246 -0.092932 -0.061243 0.24849 0.36838 0.28929 -0.014887 0.040474 0.32708 0.17323 0.026911 0.087155 0.57528 -0.57981 0.17454 -0.29835 -0.25478 -0.5582 -0.056394 -0.078088 0.080427 0.24706 -0.070548 0.2132 -0.078053 -0.38286 0.43828 -0.13935 0.21974 -0.46558 -0.048559 0.3544 -0.1658 -0.14108 0.045684 -0.284 0.2129 -0.4214 -0.05462 -0.41512 -0.44639 -0.027175 -0.30272 0.29788 0.036978 -0.09658 -0.1572 0.026489 -0.29702 -0.15137 -0.16358 0.16345 -0.035876 0.14314 -0.1271 -0.035078 -0.047141 -0.12692 0.47651 0.17301 -0.17605 -0.12911 -0.25564 0.52534 -0.054226 -0.11417 0.042771 -0.11461 -0.14536 0.63344 -0.18931 0.31643 -0.090968 -0.55477 -0.25991 0.057707 0.3198 0.029497 0.32708 
갑자기 0.34375 0.035702 0.7833 -0.11618 -0.19235 -0.43589 0.096972 0.024518 0.057617 -0.0048504 -0.18273 -0.13331 -0.037092 0.049322 0.11061 -0.37652 -0.08752 0.039243 0.33478 -0.2386 0.31442 0.00083326 -0.079925 -0.057002 0.215 0.32331 0.26095 -0.015891 0.037132 0.29072 0.15033 0.019161 0.077415 0.50578 -0.50412 0.16051 -0.26128 -0.22192 -0.49267 -0.050987 -0.065825 0.075978 0.22127 -0.059205 0.18444 -0.068251 -0.34789 0.39621 -0.12611 0.19782 -0.41477 -0.039903 0.30809 -0.14774 -0.12186 0.043013 -0.24547 0.18408 -0.3657 -0.048004 -0.36413 -0.39685 -0.019065 -0.26351 0.26544 0.036382 -0.083244 -0.13734 0.021364 -0.26562 -0.13512 -0.14611 0.14727 -0.028859 0.12922 -0.1172 -0.033287 -0.044388 -0.10339 0.41682 0.15639 -0.15932 -0.11415 -0.22112 0.4637 -0.047657 -0.099883 0.044286 -0.09956 -0.12157 0.55432 -0.16353 0.27236 -0.075632 -0.48824 -0.23374 0.049109 0.2801 0.02187 0.28791 
없는 0.38906 0.041561 0.86674 -0.12358 -0.2179 -0.48124 0.1042 0.022406 0.063883 0.0024414 -0.20637 -0.15115 -0.041968 0.064312 0.12704 -0.42302 -0.096363 0.042088 0.36769 -0.26936 0.35194 0.002308 -0.09387 -0.061354 0.23949 0.3574 0.28144 -0.018256 0.033957 0.31897 0.16894 0.026101 0.08452 0.56409 -0.56348 0.17573 -0.29507 -0.24852 -0.54833 -0.046782 -0.069856 0.082998 0.24704 -0.063679 0.20472 -0.078411 -0.38296 0.43569 -0.14408 0.21945 -0.46082 -0.051644 0.34473 -0.16696 -0.13975 0.042434 -0.28198 0.21452 -0.40892 -0.051543 -0.40782 -0.44407 -0.023774 -0.29086 0.29594 0.039194 -0.091198 -0.15047 0.024157 -0.29934 -0.14868 -0.16811 0.16207 -0.032414 0.14207 -0.12991 -0.027308 -0.045051 -0.12019 0.47121 0.1775 -0.17344 -0.12622 -0.24923 0.51715 -0.04785 -0.10928 0.049387 -0.11373 -0.13222 0.61828 -0.18038 0.3138 -0.082221 -0.54184 -0.25864 0.050506 0.31012 0.033564 0.32453 
보였다. 0.35254 0.025971 0.78511 -0.12223 -0.19597 -0.4353 0.10003 0.0175 0.059637 -0.0088641 -0.18158 -0.13296 -0.039789 0.049769 0.11438 -0.3831 -0.092223 0.041919 0.3416 -0.2412 0.31732 0.0086421 -0.071511 -0.051183 0.21299 0.32646 0.25223 -0.011336 0.037632 0.29389 0.15131 0.027644 0.075224 0.50827 -0.51181 0.15444 -0.26817 -0.22997 -0.49035 -0.052856 -0.063684 0.075719 0.22684 -0.057917 0.18522 -0.072446 -0.34495 0.38733 -0.13003 0.20063 -0.41128 -0.038599 0.31062 -0.15422 -0.12796 0.037987 -0.24441 0.1873 -0.36541 -0.053988 -0.36848 -0.39838 -0.021092 -0.26877 0.2656 0.036143 -0.083497 -0.13437 0.011406 -0.26841 -0.13846 -0.14402 0.14983 -0.039196 0.12926 -0.12233 -0.025362 -0.045834 -0.10757 0.41872 0.15485 -0.16357 -0.10884 -0.22587 0.46736 -0.050143 -0.10208 0.043469 -0.10476 -0.11922 0.5504 -0.17095 0.27744 -0.073015 -0.49678 -0.23349 0.045526 0.27289 0.022591 0.29175 
반공이 0.3735 0.040246 0.85054 -0.12258 -0.20929 -0.46854 0.10044 0.021607 0.067573 -0.0045415 -0.19451 -0.14165 -0.042312 0.057542 0.12336 -0.40621 -0.096863 0.044511 0.36004 -0.26147 0.33702 -0.0022744 -0.089392 -0.056642 0.23335 0.3483 0.27126 -0.01495 0.037366 0.30644 0.16837 0.030972 0.088975 0.54894 -0.54955 0.16754 -0.2808 -0.24326 -0.52925 -0.049544 -0.07392 0.078105 0.24006 -0.063807 0.1965 -0.081544 -0.36536 0.41944 -0.13802 0.21218 -0.4461 -0.04636 0.33639 -0.16031 -0.13146 0.040308 -0.26853 0.20193 -0.39392 -0.05091 -0.39764 -0.43008 -0.026379 -0.28374 0.28266 0.033522 -0.088906 -0.14691 0.026992 -0.29122 -0.14668 -0.15915 0.1596 -0.035433 0.14054 -0.12644 -0.026925 -0.04942 -0.11253 0.4499 0.17071 -0.17533 -0.12002 -0.24153 0.50051 -0.055134 -0.10597 0.049115 -0.10866 -0.1337 0.59938 -0.18386 0.29902 -0.078495 -0.52298 -0.25341 0.057228 0.29435 0.027115 0.31341 
쳐다보았다. 0.35469 0.032781 0.79064 -0.11997 -0.1983 -0.43647 0.10236 0.02195 0.063802 -0.0063414 -0.18441 -0.13402 -0.036721 0.049431 0.11387 -0.37811 -0.095583 0.03636 0.34341 -0.23823 0.31399 0.0020496 -0.074752 -0.055055 0.21952 0.32431 0.25553 -0.014671 0.035825 0.29525 0.15378 0.025766 0.080079 0.51366 -0.50748 0.15654 -0.26989 -0.23049 -0.49647 -0.048037 -0.067504 0.073432 0.22445 -0.05798 0.18385 -0.072068 -0.34748 0.38747 -0.12675 0.20231 -0.4122 -0.041653 0.31405 -0.1535 -0.12517 0.034962 -0.24836 0.18694 -0.36729 -0.056623 -0.37551 -0.40359 -0.022848 -0.26695 0.26634 0.033985 -0.085246 -0.13374 0.019239 -0.27172 -0.13787 -0.14333 0.14729 -0.031941 0.12876 -0.11645 -0.028069 -0.0383 -0.10914 0.41801 0.15924 -0.16001 -0.11009 -0.22622 0.47055 -0.044414 -0.10363 0.043339 -0.10571 -0.12181 0.55674 -0.17135 0.27873 -0.069336 -0.49484 -0.23604 0.049645 0.2772 0.020714 0.29112 
본 0.36794 0.04028 0.82894 -0.11944 -0.20771 -0.453 0.10548 0.018728 0.056573 -0.0086722 -0.19522 -0.13703 -0.043046 0.055229 0.12581 -0.40408 -0.096187 0.04817 0.3609 -0.24892 0.34187 0.0010933 -0.090048 -0.05952 0.22932 0.34753 0.26796 -0.014756 0.038009 0.30566 0.15097 0.02502 0.085214 0.53895 -0.53748 0.16501 -0.27548 -0.23768 -0.51516 -0.049562 -0.069971 0.07924 0.23064 -0.068171 0.19019 -0.065755 -0.36718 0.40847 -0.1352 0.20137 -0.43223 -0.042871 0.3296 -0.15152 -0.12683 0.032525 -0.26403 0.19966 -0.38977 -0.054293 -0.39279 -0.42563 -0.018447 -0.27479 0.2792 0.039733 -0.085008 -0.13927 0.024037 -0.27414 -0.14502 -0.15985 0.15683 -0.025283 0.13378 -0.12453 -0.038487 -0.050865 -0.10461 0.44719 0.17125 -0.16626 -0.11611 -0.24051 0.4949 -0.051522 -0.10332 0.037414 -0.107 -0.12753 0.58404 -0.17634 0.29071 -0.08405 -0.51116 -0.24757 0.047118 0.29511 0.025124 0.30296 
자신이 0.38926 0.042573 0.87625 -0.12527 -0.21685 -0.48321 0.10553 0.020989 0.066526 -0.0034302 -0.2045 -0.14999 -0.040537 0.057904 0.12323 -0.41938 -0.098609 0.044329 0.37597 -0.26894 0.34738 0.0054092 -0.092042 -0.060535 0.24155 0.358 0.28317 -0.017728 0.037334 0.3173 0.16954 0.025674 0.095286 0.56495 -0.56348 0.17356 -0.29248 -0.25102 -0.54527 -0.049324 -0.073475 0.077771 0.24989 -0.067663 0.20869 -0.076373 -0.37266 0.43805 -0.14131 0.2169 -0.46469 -0.042067 0.34764 -0.16524 -0.13786 0.046991 -0.27882 0.20977 -0.40786 -0.056639 -0.41183 -0.44012 -0.030551 -0.2958 0.29329 0.034783 -0.089935 -0.15608 0.023671 -0.29335 -0.15244 -0.16354 0.16266 -0.036879 0.14305 -0.12959 -0.029859 -0.044876 -0.11898 0.46217 0.17544 -0.18185 -0.12562 -0.24675 0.51811 -0.055452 -0.11325 0.051105 -0.10743 -0.14053 0.61304 -0.18057 0.30811 -0.083061 -0.54001 -0.26542 0.055591 0.30891 0.026323 0.32574 
내가 0.33398 0.036198 0.74494 -0.098927 -0.1911 -0.41212 0.08754 0.019793 0.06168 -0.0062607 -0.1778 -0.12117 -0.03195 0.053556 0.11082 -0.3629 -0.072668 0.039196 0.31012 -0.22223 0.30201 0.0040735 -0.085899 -0.052036 0.19731 0.31092 0.24361 -0.019043 0.035743 0.27414 0.14608 0.026613 0.080461 0.47803 -0.4857 0.14611 -0.248 -0.2133 -0.46432 -0.047211 -0.063256 0.067428 0.20886 -0.053575 0.17273 -0.063164 -0.32408 0.37422 -0.12272 0.18918 -0.39264 -0.04776 0.29549 -0.1408 -0.11711 0.039558 -0.23603 0.18143 -0.34755 -0.046352 -0.35328 -0.37955 -0.0195 -0.24376 0.24552 0.022609 -0.077489 -0.14054 0.028886 -0.25728 -0.12733 -0.13833 0.13974 -0.029589 0.11729 -0.10873 -0.025546 -0.037258 -0.099982 0.39518 0.15048 -0.14787 -0.10895 -0.21479 0.44235 -0.048894 -0.093062 0.045264 -0.096588 -0.114 0.5276 -0.15338 0.26293 -0.078131 -0.46556 -0.22162 0.043822 0.26528 0.028393 0.27103 
웃으며 0.34074 0.038049 0.76011 -0.10949 -0.18653 -0.42095 0.091742 0.026194 0.059392 0.0013715 -0.18292 -0.13039 -0.040237 0.04773 0.10844 -0.36945 -0.088739 0.038253 0.32737 -0.23336 0.30194 0.00060194 -0.077049 -0.057025 0.2114 0.31201 0.24683 -0.014283 0.031877 0.28192 0.14959 0.023404 0.081034 0.49559 -0.497 0.14999 -0.25719 -0.21733 -0.47863 -0.047718 -0.06428 0.077136 0.21868 -0.060246 0.17744 -0.073155 -0.32932 0.3786 -0.12666 0.19387 -0.40557 -0.04012 0.30815 -0.14063 -0.11878 0.039938 -0.23889 0.18298 -0.3543 -0.056597 -0.36104 -0.38623 -0.01928 -0.25505 0.25117 0.035327 -0.082414 -0.1372 0.024056 -0.2621 -0.12911 -0.13949 0.14112 -0.033354 0.12534 -0.10946 -0.024481 -0.041307 -0.10384 0.40637 0.15764 -0.15745 -0.1158 -0.21589 0.45477 -0.046364 -0.095791 0.042448 -0.097511 -0.11714 0.53555 -0.16637 0.2627 -0.071529 -0.48139 -0.22695 0.052115 0.26575 0.023234 0.28387 
되었다. 0.38365 0.031745 0.84983 -0.13009 -0.2133 -0.47153 0.11176 0.020512 0.065377 -0.011838 -0.19454 -0.14408 -0.041187 0.056643 0.12435 -0.41432 -0.10159 0.036839 0.37348 -0.25726 0.3413 0.0081928 -0.079197 -0.056131 0.23581 0.34942 0.27298 -0.014528 0.04063 0.31896 0.16502 0.031615 0.082529 0.5514 -0.54915 0.16651 -0.29135 -0.24842 -0.53544 -0.051122 -0.075175 0.085338 0.24528 -0.063931 0.19417 -0.08341 -0.37699 0.41684 -0.13884 0.21743 -0.44563 -0.044199 0.33774 -0.16596 -0.13447 0.038872 -0.26564 0.19966 -0.39962 -0.055844 -0.39931 -0.4318 -0.026634 -0.28743 0.28453 0.040814 -0.095274 -0.14594 0.017252 -0.29307 -0.14794 -0.15497 0.15977 -0.041308 0.13884 -0.12232 -0.03369 -0.047487 -0.11556 0.45138 0.16947 -0.17777 -0.11918 -0.24376 0.50318 -0.050218 -0.11543 0.048914 -0.11458 -0.12968 0.59939 -0.18151 0.29393 -0.07246 -0.53882 -0.25289 0.052259 0.29939 0.023854 0.31477 
않았다. 0.36504 0.032147 0.81351 -0.1303 -0.20784 -0.44546 0.10795 0.014508 0.06551 -0.0095991 -0.18917 -0.13803 -0.037129 0.049094 0.11731 -0.39003 -0.099006 0.037224 0.35012 -0.24348 0.32152 0.0027925 -0.074052 -0.053997 0.22344 0.33275 0.26025 -0.012034 0.039601 0.30497 0.15414 0.025877 0.079738 0.52466 -0.52047 0.1578 -0.27874 -0.2375 -0.50381 -0.04503 -0.07159 0.079067 0.23447 -0.058831 0.18631 -0.077166 -0.35347 0.39672 -0.1303 0.2042 -0.42352 -0.041333 0.32559 -0.15776 -0.12337 0.043819 -0.25384 0.19304 -0.37775 -0.057825 -0.38182 -0.41353 -0.024516 -0.2748 0.27234 0.035918 -0.091165 -0.14086 0.017894 -0.27895 -0.13957 -0.14397 0.15018 -0.036174 0.13361 -0.12289 -0.032919 -0.043341 -0.11287 0.43293 0.16428 -0.16307 -0.11782 -0.23196 0.47813 -0.044111 -0.10842 0.047115 -0.10989 -0.12556 0.57133 -0.17433 0.28614 -0.074326 -0.5109 -0.24166 0.04985 0.28201 0.022089 0.30109 
들어 0.46971 0.050349 1.0744 -0.15278 -0.2608 -0.59418 0.12833 0.031808 0.08339 -0.0038375 -0.25232 -0.17403 -0.051021 0.075585 0.15248 -0.52129 -0.12062 0.049719 0.45642 -0.33301 0.42528 0.0024929 -0.10966 -0.071088 0.29558 0.44232 0.34614 -0.017045 0.048245 0.39764 0.2124 0.030356 0.1166 0.69716 -0.6994 0.21383 -0.36132 -0.31196 -0.66966 -0.05897 -0.098615 0.098519 0.30247 -0.078084 0.24418 -0.098647 -0.46929 0.53135 -0.17509 0.26567 -0.56259 -0.060801 0.42484 -0.19918 -0.16302 0.053335 -0.34037 0.2563 -0.49788 -0.074684 -0.50268 -0.54531 -0.028976 -0.35704 0.36729 0.045949 -0.10908 -0.19036 0.030318 -0.37076 -0.18604 -0.19522 0.20425 -0.039302 0.17427 -0.15686 -0.044371 -0.062011 -0.14669 0.57019 0.21435 -0.20922 -0.15952 -0.30762 0.63789 -0.062063 -0.13781 0.065224 -0.13974 -0.1679 0.75705 -0.2278 0.38169 -0.10231 -0.66775 -0.32454 0.06925 0.38426 0.040344 0.39801 
한다. 0.43569 0.036943 0.97399 -0.15177 -0.24275 -0.53424 0.12936 0.02423 0.074612 -0.0091936 -0.22777 -0.16473 -0.044418 0.060714 0.14364 -0.4662 -0.11009 0.046036 0.42452 -0.29823 0.38686 0.0038319 -0.09345 -0.067656 0.26351 0.39851 0.31455 -0.013885 0.045542 0.36712 0.18811 0.03746 0.097387 0.63069 -0.62744 0.18909 -0.33099 -0.28401 -0.61007 -0.059767 -0.083744 0.08953 0.27575 -0.075343 0.22201 -0.086797 -0.42705 0.47844 -0.16306 0.24562 -0.50956 -0.050499 0.38579 -0.19077 -0.15497 0.048542 -0.3069 0.2295 -0.45617 -0.063834 -0.46127 -0.49802 -0.028793 -0.33296 0.32839 0.043301 -0.10604 -0.16994 0.018104 -0.33115 -0.16974 -0.17556 0.18398 -0.048639 0.16223 -0.14104 -0.033262 -0.051364 -0.13114 0.51705 0.19841 -0.20279 -0.1385 -0.28116 0.57654 -0.057857 -0.12614 0.055259 -0.13132 -0.14714 0.6801 -0.20779 0.34215 -0.082516 -0.61009 -0.28717 0.059162 0.34201 0.027284 0.35997 
한번 0.35767 0.034475 0.8179 -0.11295 -0.20186 -0.44848 0.093997 0.023048 0.057349 -0.00068638 -0.19388 -0.14363 -0.041239 0.057428 0.11435 -0.39328 -0.090438 0.040828 0.34408 -0.24974 0.31716 0.001433 -0.08429 -0.060634 0.2185 0.33474 0.27009 -0.015904 0.032614 0.3052 0.15909 0.021471 0.087016 0.52431 -0.52596 0.1665 -0.26922 -0.22765 -0.51156 -0.04691 -0.072273 0.073229 0.23133 -0.063214 0.19347 -0.071709 -0.34978 0.4074 -0.1317 0.20355 -0.4317 -0.041556 0.32125 -0.14718 -0.12761 0.036031 -0.25713 0.19811 -0.37723 -0.055033 -0.38882 -0.41151 -0.025204 -0.27232 0.27552 0.033152 -0.091253 -0.14197 0.023993 -0.27768 -0.13796 -0.15428 0.14965 -0.032365 0.13253 -0.11506 -0.031429 -0.048154 -0.11414 0.42955 0.16315 -0.16389 -0.11472 -0.22994 0.48438 -0.047297 -0.099993 0.044892 -0.10526 -0.12843 0.57574 -0.16548 0.28467 -0.079336 -0.50206 -0.2455 0.050146 0.28935 0.030979 0.30315 
머리를 0.4499 0.042905 1.018 -0.14112 -0.25118 -0.55853 0.12226 0.030335 0.076041 -0.00098474 -0.23871 -0.17312 -0.052763 0.067527 0.15094 -0.49091 -0.11394 0.048536 0.42787 -0.31383 0.40102 0.001989 -0.10583 -0.067075 0.27532 0.42077 0.33264 -0.0183 0.043178 0.37211 0.19585 0.033409 0.10808 0.6593 -0.66272 0.20601 -0.34263 -0.2898 -0.64021 -0.056403 -0.084909 0.097469 0.2919 -0.080263 0.23924 -0.092553 -0.43946 0.50879 -0.16244 0.25402 -0.53821 -0.050573 0.40106 -0.19302 -0.15849 0.045869 -0.3225 0.24309 -0.47525 -0.070148 -0.48432 -0.51577 -0.027311 -0.34484 0.34461 0.046622 -0.10687 -0.17828 0.026432 -0.35185 -0.17266 -0.18654 0.18028 -0.038286 0.16726 -0.14829 -0.037393 -0.054991 -0.13529 0.54225 0.2019 -0.20117 -0.1472 -0.28582 0.6014 -0.062648 -0.12766 0.059683 -0.13342 -0.15435 0.71747 -0.2161 0.36191 -0.099905 -0.63277 -0.3053 0.065828 0.35878 0.03271 0.38206 
얼굴을 0.39451 0.040562 0.87917 -0.12479 -0.21795 -0.48646 0.10543 0.028881 0.065619 -0.0046048 -0.20805 -0.14728 -0.043202 0.051973 0.13195 -0.42683 -0.099917 0.044191 0.37484 -0.27095 0.35221 -0.00046204 -0.092888 -0.062918 0.24064 0.36249 0.28692 -0.018668 0.039781 0.32263 0.17068 0.026993 0.087054 0.57185 -0.57143 0.17705 -0.29369 -0.24915 -0.5487 -0.051039 -0.080052 0.081004 0.25425 -0.069975 0.20406 -0.078604 -0.38091 0.44013 -0.14416 0.22024 -0.46646 -0.047988 0.34732 -0.16593 -0.13603 0.041056 -0.27868 0.21437 -0.41391 -0.056914 -0.41442 -0.44611 -0.022167 -0.29795 0.29259 0.040353 -0.091589 -0.15758 0.024108 -0.29897 -0.15312 -0.16286 0.1662 -0.037057 0.14448 -0.12816 -0.032603 -0.048916 -0.11916 0.47091 0.17493 -0.17504 -0.12362 -0.25092 0.52194 -0.05289 -0.1121 0.049582 -0.11208 -0.13556 0.6176 -0.18889 0.30966 -0.084296 -0.54664 -0.2724 0.057299 0.31569 0.031158 0.32387 
사람들은 0.40629 0.044824 0.90446 -0.13219 -0.22284 -0.49988 0.1135 0.028265 0.066914 -0.0054571 -0.21411 -0.15378 -0.045757 0.064249 0.12883 -0.43468 -0.10378 0.042113 0.38542 -0.27835 0.36655 0.00412 -0.09936 -0.065257 0.25121 0.3714 0.29331 -0.01894 0.040529 0.33225 0.1724 0.030721 0.095219 0.58738 -0.58199 0.17882 -0.30392 -0.25312 -0.56644 -0.05277 -0.074671 0.082986 0.25606 -0.069431 0.21506 -0.081563 -0.39295 0.45435 -0.14292 0.22551 -0.47915 -0.047072 0.35609 -0.16903 -0.1406 0.043877 -0.28746 0.21744 -0.42461 -0.061969 -0.42669 -0.4584 -0.024247 -0.30445 0.30708 0.040747 -0.094876 -0.16163 0.02984 -0.30702 -0.15658 -0.16897 0.16774 -0.039401 0.15201 -0.13488 -0.031034 -0.047097 -0.11994 0.48349 0.18237 -0.18235 -0.129 -0.25771 0.5332 -0.055499 -0.11268 0.05193 -0.11892 -0.13882 0.64064 -0.19542 0.31919 -0.087697 -0.56186 -0.27078 0.060393 0.32528 0.032388 0.33857 
할 0.33965 0.040898 0.76012 -0.10255 -0.18429 -0.42092 0.088157 0.018311 0.046239 -0.0042568 -0.18709 -0.1353 -0.042905 0.057641 0.11079 -0.37379 -0.087189 0.042565 0.31783 -0.23441 0.30738 0.0057885 -0.083414 -0.062049 0.20681 0.31424 0.25276 -0.023488 0.030856 0.28314 0.14428 0.0229 0.079181 0.4951 -0.49552 0.15726 -0.25612 -0.21951 -0.47317 -0.047976 -0.061946 0.078358 0.21268 -0.060754 0.18062 -0.066005 -0.33962 0.39492 -0.12312 0.19476 -0.3977 -0.047187 0.3022 -0.14345 -0.11378 0.031478 -0.24062 0.18031 -0.35968 -0.044592 -0.35866 -0.39107 -0.020997 -0.25588 0.25831 0.022297 -0.084715 -0.13177 0.020864 -0.25798 -0.12652 -0.13905 0.14284 -0.037161 0.1237 -0.11018 -0.028597 -0.047023 -0.1003 0.40817 0.15324 -0.15363 -0.11282 -0.2171 0.45095 -0.038636 -0.095491 0.046591 -0.097277 -0.11748 0.53769 -0.16109 0.2736 -0.079072 -0.48275 -0.22698 0.046211 0.27011 0.020394 0.28072 
뒤로 0.3207 0.03086 0.72234 -0.097897 -0.17796 -0.39812 0.084637 0.020497 0.051881 -0.0046493 -0.16552 -0.12212 -0.035225 0.045214 0.10695 -0.34677 -0.081833 0.035948 0.30702 -0.21829 0.28208 -0.0031802 -0.076798 -0.056291 0.19504 0.2904 0.23744 -0.011936 0.033125 0.26494 0.14178 0.02042 0.075647 0.46977 -0.46312 0.14244 -0.24353 -0.20557 -0.44956 -0.040393 -0.060238 0.067447 0.19583 -0.055825 0.16457 -0.060708 -0.30952 0.35573 -0.11832 0.18148 -0.37875 -0.03778 0.28742 -0.1397 -0.11212 0.039333 -0.22812 0.17662 -0.33309 -0.046362 -0.34125 -0.36064 -0.021246 -0.24551 0.24144 0.028734 -0.07515 -0.12145 0.024263 -0.23919 -0.12353 -0.13383 0.13492 -0.032479 0.11575 -0.10704 -0.025594 -0.03715 -0.092646 0.38774 0.14475 -0.14589 -0.10608 -0.19783 0.42734 -0.04525 -0.094573 0.040581 -0.098143 -0.10821 0.51222 -0.15356 0.25305 -0.066893 -0.44552 -0.22174 0.048624 0.25992 0.026625 0.26358 
모두가 0.36753 0.038187 0.83217 -0.12017 -0.19952 -0.45504 0.10616 0.023258 0.06177 -0.00095152 -0.19508 -0.14103 -0.03869 0.054731 0.11902 -0.40393 -0.09574 0.040553 0.35603 -0.25417 0.33686 0.00057787 -0.087755 -0.060544 0.23143 0.34183 0.27164 -0.016805 0.039575 0.30167 0.15677 0.024963 0.088083 0.53707 -0.53695 0.16154 -0.27492 -0.23321 -0.51945 -0.050332 -0.072494 0.076946 0.23821 -0.06484 0.19514 -0.074736 -0.36341 0.41078 -0.13532 0.20575 -0.43843 -0.043507 0.33007 -0.15038 -0.13138 0.039818 -0.26538 0.19979 -0.38816 -0.049143 -0.39064 -0.41542 -0.024392 -0.27932 0.27899 0.031157 -0.087308 -0.14339 0.026947 -0.28352 -0.13895 -0.1511 0.15424 -0.032257 0.13561 -0.1226 -0.023933 -0.043255 -0.10951 0.43942 0.17045 -0.16516 -0.11889 -0.23592 0.48591 -0.050751 -0.10313 0.045967 -0.10604 -0.12229 0.5804 -0.1788 0.28679 -0.075965 -0.51335 -0.25085 0.048474 0.29106 0.027709 0.30246 
모두 0.44514 0.049738 1.0059 -0.14261 -0.24685 -0.55086 0.12081 0.025914 0.079031 -0.0025718 -0.24122 -0.17301 -0.04729 0.067661 0.14899 -0.48791 -0.12008 0.043421 0.42853 -0.30377 0.40656 0.0030545 -0.10935 -0.077189 0.27553 0.41243 0.33254 -0.017383 0.048298 0.36786 0.19288 0.030572 0.1002 0.64898 -0.64755 0.19587 -0.33369 -0.29108 -0.62829 -0.059343 -0.087466 0.098228 0.28176 -0.077249 0.23534 -0.090195 -0.43829 0.50449 -0.1623 0.24807 -0.53258 -0.050913 0.39909 -0.19119 -0.1541 0.055487 -0.31864 0.24582 -0.47187 -0.057002 -0.47688 -0.50366 -0.02303 -0.33669 0.3366 0.041468 -0.1067 -0.17711 0.028708 -0.33765 -0.16814 -0.1916 0.18049 -0.036536 0.16345 -0.14791 -0.027742 -0.057357 -0.1326 0.53773 0.20398 -0.20109 -0.14499 -0.28721 0.59198 -0.056225 -0.12586 0.053318 -0.13007 -0.15264 0.71217 -0.2174 0.35296 -0.09281 -0.62196 -0.30085 0.058138 0.35451 0.035649 0.36829 
반아 0.48828 0.052807 1.1051 -0.16701 -0.2683 -0.61197 0.13408 0.030735 0.080667 -0.006764 -0.2536 -0.18212 -0.059037 0.074124 0.15989 -0.53253 -0.12835 0.054433 0.4727 -0.34407 0.43909 0.003747 -0.11691 -0.07156 0.29775 0.45324 0.36044 -0.025462 0.055176 0.41503 0.21517 0.036233 0.10964 0.71452 -0.71781 0.22316 -0.36868 -0.31389 -0.6937 -0.065486 -0.093548 0.10327 0.31831 -0.086453 0.25579 -0.097935 -0.48564 0.55156 -0.17318 0.28083 -0.58801 -0.063305 0.43679 -0.20411 -0.17301 0.055184 -0.35154 0.2744 -0.51876 -0.07416 -0.52434 -0.56591 -0.030067 -0.37025 0.36863 0.052918 -0.12339 -0.19354 0.027299 -0.37092 -0.19055 -0.21115 0.21199 -0.041673 0.18335 -0.15491 -0.037833 -0.063087 -0.14951 0.59547 0.22783 -0.22765 -0.15762 -0.3144 0.65138 -0.065872 -0.13744 0.062104 -0.14856 -0.16411 0.78243 -0.24059 0.38822 -0.10629 -0.68731 -0.33554 0.064065 0.38871 0.037373 0.41024 
때문에 0.3784 0.041347 0.85084 -0.1198 -0.2074 -0.46409 0.10332 0.026218 0.059533 -0.003113 -0.20204 -0.14452 -0.03955 0.05942 0.11972 -0.41441 -0.096579 0.039517 0.3586 -0.2587 0.34365 -0.00034988 -0.088281 -0.0622 0.22935 0.34519 0.27269 -0.019313 0.036999 0.30639 0.15788 0.024774 0.087349 0.55107 -0.54799 0.16844 -0.28329 -0.24292 -0.52976 -0.046481 -0.070674 0.077122 0.23948 -0.06537 0.20291 -0.075978 -0.36965 0.42004 -0.138 0.21376 -0.4472 -0.043042 0.33137 -0.16066 -0.12982 0.044734 -0.26317 0.2072 -0.39488 -0.052262 -0.4008 -0.42629 -0.022391 -0.2814 0.28308 0.035743 -0.088451 -0.15081 0.022524 -0.28583 -0.14114 -0.16266 0.15317 -0.037859 0.13573 -0.12503 -0.029019 -0.041664 -0.11713 0.44835 0.16717 -0.17568 -0.11879 -0.24226 0.49796 -0.050996 -0.10648 0.043377 -0.10686 -0.12404 0.59902 -0.1768 0.30035 -0.078648 -0.52781 -0.25183 0.050702 0.30259 0.030728 0.30973 
아직 0.37448 0.042057 0.8366 -0.12109 -0.20072 -0.45906 0.10551 0.023234 0.060651 -0.0069436 -0.19985 -0.13875 -0.032487 0.058014 0.12076 -0.40005 -0.093576 0.039133 0.35465 -0.25613 0.33648 0.0036418 -0.089452 -0.064862 0.23461 0.34149 0.27044 -0.013354 0.036203 0.30523 0.16425 0.025055 0.083106 0.54633 -0.54252 0.16712 -0.28477 -0.24643 -0.52321 -0.04474 -0.068088 0.081165 0.23001 -0.070274 0.1911 -0.075632 -0.36964 0.41711 -0.14173 0.20985 -0.44253 -0.046644 0.33574 -0.15118 -0.1295 0.044694 -0.26489 0.20171 -0.39742 -0.052178 -0.39198 -0.42622 -0.020141 -0.2848 0.28683 0.029457 -0.087444 -0.14875 0.025729 -0.28506 -0.14017 -0.15956 0.1561 -0.031964 0.14235 -0.11755 -0.029717 -0.040986 -0.11512 0.44522 0.16919 -0.16751 -0.11902 -0.23456 0.49669 -0.048451 -0.10376 0.050834 -0.10901 -0.12972 0.59463 -0.17773 0.30123 -0.073375 -0.51841 -0.25347 0.050973 0.29854 0.025814 0.31441 
힘을 0.25807 0.030848 0.56761 -0.086027 -0.14354 -0.31443 0.07268 0.017424 0.043669 -0.0034836 -0.13698 -0.097304 -0.028337 0.035824 0.080957 -0.2687 -0.070036 0.028727 0.24212 -0.17423 0.23194 0.0025823 -0.056517 -0.044814 0.1577 0.23509 0.18478 -0.010674 0.02579 0.21153 0.104 0.012042 0.063375 0.37415 -0.36952 0.11572 -0.19181 -0.16844 -0.35116 -0.034463 -0.051582 0.05693 0.1602 -0.041781 0.13109 -0.046815 -0.2516 0.28567 -0.096458 0.14252 -0.30401 -0.032897 0.22781 -0.10758 -0.090226 0.030458 -0.18607 0.13618 -0.27138 -0.033102 -0.2658 -0.28481 -0.012501 -0.19336 0.19325 0.019763 -0.059721 -0.096493 0.019987 -0.19859 -0.093746 -0.10376 0.10044 -0.017476 0.09045 -0.080065 -0.022108 -0.028446 -0.074318 0.30562 0.115 -0.11547 -0.084967 -0.1598 0.34066 -0.036621 -0.069645 0.030536 -0.074263 -0.090826 0.40036 -0.12015 0.20308 -0.053834 -0.35148 -0.17482 0.033322 0.20227 0.018339 0.21503 
갔다. 0.51257 0.044078 1.159 -0.17881 -0.29214 -0.6406 0.15709 0.03028 0.08834 -0.012254 -0.26191 -0.19754 -0.057652 0.073495 0.17156 -0.55707 -0.13746 0.054424 0.49886 -0.34777 0.45762 0.0077709 -0.10798 -0.075399 0.31179 0.47783 0.3755 -0.01411 0.053621 0.43166 0.22011 0.039129 0.11292 0.75201 -0.74791 0.22624 -0.39316 -0.33511 -0.72799 -0.073709 -0.10268 0.10964 0.33649 -0.087149 0.26826 -0.11105 -0.50298 0.57071 -0.18981 0.2882 -0.60299 -0.062521 0.45855 -0.22362 -0.18186 0.053731 -0.36257 0.27274 -0.53566 -0.07812 -0.54834 -0.58598 -0.036056 -0.38815 0.38796 0.0488 -0.1261 -0.19393 0.018579 -0.39357 -0.19868 -0.20798 0.2196 -0.05541 0.19332 -0.17337 -0.041827 -0.059535 -0.15677 0.61413 0.23169 -0.23929 -0.16216 -0.33247 0.68091 -0.073502 -0.14655 0.066625 -0.15791 -0.17448 0.81143 -0.24821 0.40208 -0.10753 -0.72646 -0.34297 0.069627 0.40461 0.032733 0.42358 
빛이 0.36183 0.039743 0.82625 -0.12043 -0.19806 -0.45966 0.099534 0.024018 0.056905 -0.0034294 -0.19263 -0.14365 -0.044094 0.060956 0.11601 -0.38986 -0.086629 0.040483 0.35202 -0.25726 0.33508 0.0049608 -0.08126 -0.061026 0.23057 0.33915 0.26818 -0.004876 0.034659 0.30008 0.15859 0.024558 0.084594 0.5323 -0.53183 0.16419 -0.27421 -0.23356 -0.52141 -0.049739 -0.07363 0.076438 0.23472 -0.066393 0.19468 -0.072079 -0.35928 0.41894 -0.13061 0.20607 -0.43727 -0.038795 0.33136 -0.15225 -0.13304 0.035441 -0.26537 0.19792 -0.3821 -0.055794 -0.39251 -0.41769 -0.024778 -0.28085 0.27832 0.034166 -0.093969 -0.14075 0.02639 -0.27832 -0.13899 -0.15126 0.15324 -0.034274 0.13534 -0.12325 -0.022391 -0.04661 -0.11386 0.43737 0.16627 -0.17016 -0.12118 -0.23592 0.49221 -0.048499 -0.096309 0.044231 -0.10876 -0.1302 0.58219 -0.17971 0.2956 -0.073881 -0.5144 -0.25328 0.043396 0.29547 0.027695 0.30389 
역시 0.36271 0.039014 0.80318 -0.11719 -0.20001 -0.45151 0.098598 0.02187 0.054527 -0.0045176 -0.19016 -0.13606 -0.038667 0.054907 0.11882 -0.38675 -0.093917 0.038901 0.34223 -0.25209 0.32449 0.0011858 -0.084665 -0.060087 0.22306 0.32939 0.26391 -0.015673 0.035461 0.29781 0.15472 0.027093 0.084903 0.52747 -0.5235 0.16771 -0.27349 -0.22924 -0.50352 -0.052641 -0.074533 0.075385 0.22439 -0.062724 0.19169 -0.065325 -0.3471 0.40772 -0.13043 0.20637 -0.4269 -0.047887 0.3186 -0.15114 -0.12572 0.037198 -0.25646 0.19523 -0.38342 -0.053172 -0.37514 -0.40531 -0.02363 -0.27159 0.27176 0.031408 -0.085153 -0.14128 0.024491 -0.2748 -0.13397 -0.15496 0.15164 -0.033104 0.13522 -0.11934 -0.027725 -0.037001 -0.11425 0.43156 0.16043 -0.15991 -0.11838 -0.23125 0.47612 -0.051292 -0.097502 0.047734 -0.10649 -0.12432 0.56798 -0.17725 0.28947 -0.078988 -0.50183 -0.23784 0.044112 0.28799 0.024382 0.30376 
마법의 0.4587 0.053332 1.0146 -0.14159 -0.25141 -0.55524 0.12372 0.032105 0.06986 -0.0011279 -0.23842 -0.17731 -0.046017 0.079355 0.14861 -0.48586 -0.10766 0.048448 0.42559 -0.30541 0.40783 0.0056095 -0.10709 -0.076018 0.28128 0.41401 0.32512 -0.018852 0.039651 0.36369 0.18577 0.026967 0.10903 0.65827 -0.65501 0.20644 -0.33881 -0.28596 -0.63491 -0.063193 -0.080824 0.10002 0.28197 -0.081586 0.2281 -0.089555 -0.43402 0.51148 -0.15851 0.25253 -0.54042 -0.056796 0.40008 -0.19147 -0.15639 0.049004 -0.32569 0.24113 -0.46749 -0.065049 -0.47502 -0.50343 -0.029411 -0.33665 0.34273 0.036943 -0.10262 -0.1809 0.032201 -0.33342 -0.1744 -0.19377 0.18408 -0.040211 0.166 -0.15109 -0.031346 -0.050915 -0.13557 0.54259 0.19856 -0.19835 -0.15259 -0.29293 0.59744 -0.059184 -0.12143 0.056114 -0.12607 -0.15699 0.71734 -0.21349 0.3638 -0.098501 -0.62183 -0.30099 0.056719 0.35869 0.042532 0.37437 
하였다. 0.39276 0.03312 0.88679 -0.13667 -0.21886 -0.49359 0.11476 0.02026 0.066627 -0.011604 -0.20286 -0.1495 -0.042354 0.061135 0.12607 -0.4289 -0.10252 0.04428 0.38153 -0.2718 0.35646 0.0096671 -0.083673 -0.06008 0.24017 0.36423 0.28261 -0.014186 0.039854 0.33146 0.17001 0.026661 0.087276 0.57239 -0.57291 0.17438 -0.30022 -0.25462 -0.554 -0.056472 -0.074224 0.086688 0.25154 -0.068133 0.20542 -0.080083 -0.38819 0.43186 -0.14475 0.22086 -0.46565 -0.044732 0.35049 -0.17281 -0.14544 0.041529 -0.27574 0.20943 -0.41299 -0.057675 -0.41585 -0.4479 -0.026544 -0.30318 0.30052 0.04112 -0.094692 -0.14628 0.014942 -0.29934 -0.15717 -0.16096 0.1622 -0.040413 0.14792 -0.13192 -0.032196 -0.048899 -0.11951 0.47136 0.17682 -0.18175 -0.12397 -0.25296 0.52702 -0.0547 -0.11606 0.049982 -0.12052 -0.13456 0.61959 -0.19142 0.31254 -0.082716 -0.55455 -0.26306 0.053383 0.30906 0.024288 0.32651 
나왔다. 0.34542 0.032168 0.77487 -0.11929 -0.19012 -0.4314 0.099242 0.021912 0.059717 -0.0058814 -0.17758 -0.13086 -0.038942 0.052044 0.11197 -0.37563 -0.094186 0.038441 0.33577 -0.23586 0.30846 0.0040444 -0.071178 -0.053117 0.21114 0.31679 0.24568 -0.0079605 0.038768 0.29041 0.15077 0.025433 0.07325 0.50494 -0.49932 0.15046 -0.26306 -0.22223 -0.48507 -0.048935 -0.067702 0.071957 0.22305 -0.057079 0.177 -0.070352 -0.3385 0.37887 -0.12592 0.1916 -0.40199 -0.039283 0.30729 -0.15201 -0.12574 0.03556 -0.24114 0.1814 -0.36013 -0.050763 -0.36545 -0.39382 -0.021921 -0.26449 0.25731 0.03274 -0.085499 -0.12929 0.014757 -0.2642 -0.1394 -0.14142 0.14282 -0.037817 0.12804 -0.11645 -0.028702 -0.042686 -0.10806 0.41134 0.15372 -0.15641 -0.10599 -0.21911 0.45537 -0.045362 -0.10234 0.041154 -0.10218 -0.11623 0.54767 -0.16778 0.26864 -0.064902 -0.49179 -0.22747 0.047948 0.27353 0.021138 0.28655 
차원의 0.30008 0.030192 0.68575 -0.095113 -0.16535 -0.37678 0.08164 0.013671 0.050859 -0.0010473 -0.15958 -0.11143 -0.034875 0.045689 0.10015 -0.33133 -0.076085 0.031893 0.28828 -0.21306 0.27208 0.00039233 -0.075088 -0.051259 0.18246 0.28139 0.2212 -0.011082 0.024704 0.24655 0.12697 0.02036 0.067908 0.44041 -0.44418 0.13239 -0.22681 -0.19214 -0.42685 -0.040383 -0.060242 0.05703 0.18848 -0.056905 0.15462 -0.056264 -0.28913 0.34285 -0.10737 0.16769 -0.36167 -0.036412 0.26367 -0.12944 -0.10673 0.032363 -0.22314 0.16591 -0.32001 -0.04386 -0.31657 -0.34251 -0.013756 -0.2255 0.23099 0.025881 -0.071444 -0.11865 0.020273 -0.22811 -0.11816 -0.12849 0.1235 -0.021005 0.10913 -0.10332 -0.025227 -0.033029 -0.095684 0.36564 0.14289 -0.13242 -0.10066 -0.19417 0.39223 -0.042028 -0.084795 0.039162 -0.079234 -0.10045 0.48706 -0.1443 0.24162 -0.064906 -0.41644 -0.20358 0.042858 0.24845 0.026146 0.25624 
문이 0.30992 0.027904 0.69913 -0.099029 -0.17816 -0.38597 0.084966 0.01527 0.05356 -0.001868 -0.1634 -0.11863 -0.033141 0.046183 0.10522 -0.33937 -0.076715 0.030119 0.3036 -0.21887 0.27792 0.0014157 -0.072509 -0.05039 0.19057 0.28257 0.22743 -0.010946 0.034775 0.25623 0.12946 0.0159 0.071215 0.45577 -0.45725 0.14128 -0.23343 -0.19451 -0.43765 -0.036542 -0.062944 0.061188 0.20147 -0.053976 0.16513 -0.065062 -0.30323 0.35163 -0.11401 0.16985 -0.36378 -0.034852 0.27439 -0.12776 -0.11194 0.035319 -0.2207 0.16887 -0.32541 -0.041293 -0.33202 -0.35638 -0.023504 -0.24044 0.23709 0.027708 -0.077595 -0.12107 0.018406 -0.23534 -0.12022 -0.13326 0.13089 -0.020584 0.11542 -0.10857 -0.029567 -0.033811 -0.091505 0.37612 0.13933 -0.13841 -0.10659 -0.19527 0.41406 -0.044685 -0.084168 0.044105 -0.086196 -0.10393 0.49858 -0.14835 0.2509 -0.064474 -0.43479 -0.21037 0.038052 0.25266 0.021612 0.26166 
라는 0.37554 0.042285 0.86629 -0.12856 -0.21487 -0.47639 0.10125 0.026215 0.066337 -0.0037962 -0.20218 -0.1415 -0.04148 0.056046 0.12361 -0.42073 -0.099289 0.041366 0.36905 -0.26795 0.34506 0.0040765 -0.090323 -0.068815 0.24289 0.3473 0.27884 -0.021145 0.039164 0.31265 0.1672 0.024314 0.091949 0.5573 -0.55702 0.17478 -0.29422 -0.24504 -0.53318 -0.052723 -0.078379 0.07974 0.24402 -0.06559 0.20154 -0.074596 -0.37425 0.42697 -0.14142 0.21888 -0.457 -0.044725 0.34641 -0.1623 -0.13595 0.042614 -0.27679 0.21232 -0.4012 -0.05689 -0.40614 -0.43181 -0.023445 -0.28864 0.29089 0.0293 -0.091914 -0.15324 0.026749 -0.28956 -0.14673 -0.15875 0.15853 -0.03337 0.14397 -0.12686 -0.029985 -0.052213 -0.12069 0.45817 0.17876 -0.17576 -0.13058 -0.24167 0.50662 -0.056516 -0.10535 0.049203 -0.10928 -0.13005 0.60915 -0.17892 0.30579 -0.081944 -0.53753 -0.2587 0.051736 0.30796 0.031996 0.32266 
그들은 0.40212 0.040734 0.90345 -0.13184 -0.22592 -0.49851 0.11327 0.021977 0.066246 -0.0044668 -0.20606 -0.15133 -0.045822 0.063305 0.13121 -0.4358 -0.1024 0.04029 0.38168 -0.27654 0.36173 0.003039 -0.093745 -0.069527 0.24799 0.37264 0.29126 -0.020604 0.039116 0.33382 0.1725 0.025707 0.095198 0.58459 -0.58378 0.18154 -0.30276 -0.25472 -0.56376 -0.055578 -0.077298 0.08189 0.25347 -0.069872 0.20856 -0.080026 -0.39572 0.45319 -0.1466 0.22502 -0.47562 -0.050485 0.35337 -0.1702 -0.13507 0.04099 -0.28864 0.21931 -0.41753 -0.061507 -0.42108 -0.45312 -0.024489 -0.30182 0.30202 0.038448 -0.092193 -0.16322 0.029832 -0.30679 -0.15533 -0.16926 0.16821 -0.033096 0.15091 -0.13592 -0.034116 -0.045418 -0.12033 0.48341 0.18097 -0.18048 -0.13279 -0.25863 0.53513 -0.053069 -0.11218 0.051934 -0.11723 -0.14387 0.63899 -0.19252 0.31721 -0.089953 -0.56113 -0.27285 0.057785 0.32188 0.035321 0.33519 
눈이 0.29169 0.027451 0.64776 -0.092137 -0.15798 -0.35189 0.07681 0.021233 0.050687 0.0033179 -0.14386 -0.1103 -0.034141 0.045417 0.099106 -0.31483 -0.075956 0.029718 0.27959 -0.19855 0.2594 -0.0029969 -0.070165 -0.049971 0.17727 0.26856 0.21118 -0.0099311 0.026427 0.24165 0.12755 0.017792 0.068258 0.42488 -0.42531 0.1323 -0.21936 -0.189 -0.40987 -0.039792 -0.056276 0.062361 0.1839 -0.055004 0.15706 -0.054118 -0.28655 0.32401 -0.10953 0.16374 -0.34688 -0.037085 0.25685 -0.1231 -0.098869 0.036678 -0.20836 0.16505 -0.29935 -0.040674 -0.30681 -0.33472 -0.020956 -0.2188 0.21289 0.030464 -0.072137 -0.1138 0.018012 -0.22453 -0.1116 -0.12766 0.11782 -0.029226 0.11129 -0.098564 -0.024309 -0.038262 -0.088927 0.34796 0.13294 -0.13294 -0.093713 -0.18422 0.38935 -0.038843 -0.082513 0.032245 -0.088867 -0.1003 0.45747 -0.13922 0.22941 -0.066015 -0.4044 -0.19664 0.038953 0.22829 0.025624 0.23849 
